<?xml version="1.0"?>
<opencv_storage>
<opencv_ml_svm>
  <format>3</format>
  <svmType>C_SVC</svmType>
  <kernel>
    <type>LINEAR</type></kernel>
  <C>1.</C>
  <term_criteria><iterations>100</iterations></term_criteria>
  <var_count>2500</var_count>
  <class_count>10</class_count>
  <class_labels type_id="opencv-matrix">
    <rows>10</rows>
    <cols>1</cols>
    <dt>i</dt>
    <data>
      0 1 2 3 4 5 6 7 8 9</data></class_labels>
  <sv_total>45</sv_total>
  <support_vectors>
    <_>
      -2.54109884e-21 -2.54109884e-21 -2.54109884e-21 -2.54109884e-21
      -2.54109884e-21 -2.54109884e-21 -2.54109884e-21 -2.54109884e-21
      -2.54109884e-21 -2.54109884e-21 -2.54109884e-21 -2.54109884e-21
      -2.54109884e-21 -2.54109884e-21 -2.54109884e-21 -2.54109884e-21
      -3.41757982e-07 -1.66206758e-06 -2.67153246e-06 -2.67153246e-06
      -2.67153246e-06 -2.67153246e-06 -2.67153246e-06 -2.67153246e-06
      -2.64305254e-06 -2.39081896e-06 -1.66137443e-06 -2.19473009e-06
      -2.67153246e-06 -2.67153246e-06 -2.67153246e-06 -2.67153246e-06
      -2.67153246e-06 -2.55761302e-06 -1.07676249e-06 -2.54109884e-21
      -2.54109884e-21 -2.54109884e-21 -2.54109884e-21 -2.54109884e-21
      -2.54109884e-21 -2.54109884e-21 -2.54109884e-21 -2.54109884e-21
      -2.54109884e-21 -2.54109884e-21 -2.54109884e-21 -2.54109884e-21
      -2.54109884e-21 -2.54109884e-21 -2.54109884e-21 -2.54109884e-21
      -2.54109884e-21 -2.54109884e-21 -2.54109884e-21 -2.54109884e-21
      -2.54109884e-21 -2.54109884e-21 -2.54109884e-21 -2.54109884e-21
      -2.54109884e-21 -2.54109884e-21 -2.54109884e-21 -2.54109884e-21
      -2.54109884e-21 -2.19294702e-06 -6.42276427e-06 -1.19058959e-05
      -1.58428084e-05 -1.58428084e-05 -1.58428084e-05 -1.58428084e-05
      -1.58428084e-05 -1.58428084e-05 -1.56743808e-05 -1.19693732e-05
      -6.13835482e-06 -1.02087006e-05 -1.53660058e-05 -1.58428084e-05
      -1.58428084e-05 -1.58428084e-05 -1.58428084e-05 -1.51877721e-05
      -7.08196239e-06 -2.55507894e-06 -1.07676249e-06 -2.54109884e-21
      -2.54109884e-21 -2.54109884e-21 -2.54109884e-21 -2.54109884e-21
      -2.54109884e-21 -2.54109884e-21 -2.54109884e-21 -2.54109884e-21
      -2.54109884e-21 -2.54109884e-21 -2.54109884e-21 -2.54109884e-21
      -2.54109884e-21 -2.54109884e-21 -2.54109884e-21 -2.54109884e-21
      -2.54109884e-21 -2.54109884e-21 -2.54109884e-21 -2.54109884e-21
      -2.54109884e-21 -2.54109884e-21 -2.54109884e-21 -2.54109884e-21
      -2.54109884e-21 -2.54109884e-21 -2.54109884e-21 -9.83760856e-06
      -1.55736179e-05 -1.58428084e-05 -1.58428084e-05 -1.58428084e-05
      -1.58428084e-05 -1.58428084e-05 -1.58428084e-05 -1.58428084e-05
      -1.27549602e-05 -4.08687765e-06 0. -4.54755809e-06 -1.41058854e-05
      -1.58428084e-05 -1.58428084e-05 -1.58428084e-05 -1.58428084e-05
      -1.55010512e-05 -1.21174216e-05 -1.17682630e-05 -7.19861737e-06
      -8.07571894e-07 -2.54109884e-21 -2.54109884e-21 -2.54109884e-21
      -2.54109884e-21 -2.54109884e-21 -2.54109884e-21 -2.54109884e-21
      -2.54109884e-21 -2.54109884e-21 -2.54109884e-21 -2.54109884e-21
      -2.54109884e-21 -2.54109884e-21 -2.54109884e-21 -2.54109884e-21
      -2.54109884e-21 -2.54109884e-21 -2.54109884e-21 -2.54109884e-21
      -2.54109884e-21 -2.54109884e-21 -2.54109884e-21 -2.54109884e-21
      -2.54109884e-21 -2.54109884e-21 -2.54109884e-21 -3.53149926e-06
      -1.34614447e-05 -1.58428084e-05 -1.36498611e-05 -1.12169082e-05
      -1.40594202e-05 -1.58428084e-05 -1.58428084e-05 -1.58428084e-05
      -1.29795308e-05 -5.11685221e-06 0. 0. -2.04920821e-06
      -1.33760304e-05 -1.58428084e-05 -1.58428084e-05 -1.58428084e-05
      -1.58428084e-05 -1.58428084e-05 -1.58428084e-05 -1.58428084e-05
      -1.12290754e-05 -1.61514379e-06 -2.54109884e-21 -2.54109884e-21
      -2.54109884e-21 -2.54109884e-21 -2.54109884e-21 -2.54109884e-21
      -2.54109884e-21 -2.54109884e-21 -2.54109884e-21 -2.54109884e-21
      -2.54109884e-21 -2.54109884e-21 -2.54109884e-21 -2.54109884e-21
      -2.54109884e-21 -2.54109884e-21 -2.54109884e-21 -2.54109884e-21
      -2.54109884e-21 -2.54109884e-21 -2.54109884e-21 -2.54109884e-21
      -2.54109884e-21 -2.54109884e-21 -2.54109884e-21 -2.54109884e-21
      -5.26876920e-06 -1.36892832e-05 -1.58428084e-05 -1.53016917e-05
      -1.08357281e-05 -4.45492014e-06 -2.67153246e-06 -2.67153246e-06
      -2.67153246e-06 2.52166660e-06 1.14628328e-05 1.31712759e-05
      1.31712759e-05 1.31712759e-05 3.56672558e-07 -2.67153246e-06
      -2.67153246e-06 -2.67153246e-06 -2.67153246e-06 -8.60557520e-06
      -1.58428084e-05 -1.58428084e-05 -1.50738533e-05 -2.72585726e-06
      -2.54109884e-21 -2.54109884e-21 -2.54109884e-21 -2.54109884e-21
      -2.54109884e-21 -2.54109884e-21 -2.54109884e-21 -2.54109884e-21
      -2.54109884e-21 -2.54109884e-21 -2.54109884e-21 -2.54109884e-21
      -2.54109884e-21 -2.54109884e-21 -2.54109884e-21 -2.54109884e-21
      -2.54109884e-21 -2.54109884e-21 -2.54109884e-21 -2.54109884e-21
      -2.54109884e-21 -2.54109884e-21 -2.54109884e-21 -2.54109884e-21
      -2.54109884e-21 -2.54109884e-21 -5.26876920e-06 -1.36892832e-05
      -1.58428084e-05 -1.58428084e-05 -1.12290754e-05 -2.69190627e-06
      -2.54109884e-21 -2.54109884e-21 -2.54109884e-21 5.19319929e-06
      1.41058854e-05 1.58428084e-05 1.58428084e-05 1.20812483e-05
      1.96149381e-06 -2.54109884e-21 -2.54109884e-21 -2.54109884e-21
      -5.26876920e-06 -1.47660458e-05 -1.58428084e-05 -1.58428084e-05
      -1.50738533e-05 -2.72585726e-06 -2.54109884e-21 -2.54109884e-21
      -2.54109884e-21 -2.54109884e-21 -2.54109884e-21 -2.54109884e-21
      -2.54109884e-21 -2.54109884e-21 -2.54109884e-21 -2.54109884e-21
      -2.54109884e-21 -2.54109884e-21 -2.54109884e-21 -2.54109884e-21
      -2.54109884e-21 -2.54109884e-21 -2.54109884e-21 -2.54109884e-21
      -2.54109884e-21 -2.54109884e-21 -2.54109884e-21 -2.54109884e-21
      -2.54109884e-21 -2.54109884e-21 -2.54109884e-21 -2.54109884e-21
      -5.26876920e-06 -1.36892832e-05 -1.58428084e-05 -1.58428084e-05
      -1.12290754e-05 -2.69190627e-06 -2.54109884e-21 -2.54109884e-21
      -2.54109884e-21 5.19319929e-06 1.41058854e-05 1.58428084e-05
      1.58428084e-05 1.12952503e-05 1.73692308e-06 -2.54109884e-21
      -2.54109884e-21 -2.54109884e-21 -5.26876920e-06 -1.47660458e-05
      -1.58428084e-05 -1.58428084e-05 -1.12290754e-05 -1.61514379e-06
      -2.54109884e-21 -2.54109884e-21 -2.54109884e-21 -2.54109884e-21
      -2.54109884e-21 -2.54109884e-21 -2.54109884e-21 -2.54109884e-21
      -2.54109884e-21 -2.54109884e-21 -2.54109884e-21 -2.54109884e-21
      -2.54109884e-21 -2.54109884e-21 -2.54109884e-21 -2.54109884e-21
      -2.54109884e-21 -2.54109884e-21 -2.54109884e-21 -2.54109884e-21
      -2.54109884e-21 -2.54109884e-21 -2.54109884e-21 -2.54109884e-21
      -2.54109884e-21 -2.54109884e-21 -5.26876920e-06 -1.36892832e-05
      -1.58428084e-05 -1.58428084e-05 -1.12290754e-05 -2.69190627e-06
      -2.54109884e-21 -2.54109884e-21 -2.54109884e-21 5.19319929e-06
      1.41058854e-05 1.58428084e-05 1.58428084e-05 1.12952503e-05
      1.73692308e-06 -2.54109884e-21 -2.54109884e-21 -2.54109884e-21
      -5.26876920e-06 -1.47660458e-05 -1.58428084e-05 -1.58428084e-05
      -1.12290754e-05 -1.61514379e-06 -2.54109884e-21 -2.54109884e-21
      -2.54109884e-21 -2.54109884e-21 -2.54109884e-21 -2.54109884e-21
      -2.54109884e-21 -2.54109884e-21 -2.54109884e-21 -2.54109884e-21
      -2.54109884e-21 -2.54109884e-21 -2.54109884e-21 -2.54109884e-21
      -2.54109884e-21 -2.54109884e-21 -2.54109884e-21 -2.54109884e-21
      -2.54109884e-21 -2.54109884e-21 -2.54109884e-21 -2.54109884e-21
      -2.54109884e-21 -2.54109884e-21 -2.54109884e-21 -2.54109884e-21
      -5.26876920e-06 -1.36892832e-05 -1.58428084e-05 -1.58428084e-05
      -1.12290754e-05 -2.69190627e-06 -2.54109884e-21 -2.54109884e-21
      -2.54109884e-21 5.19319929e-06 1.41058854e-05 1.58428084e-05
      1.58428084e-05 1.12952503e-05 1.73692308e-06 -2.54109884e-21
      -2.54109884e-21 -2.54109884e-21 -5.26876920e-06 -1.47660458e-05
      -1.58428084e-05 -1.58428084e-05 -1.12290754e-05 -1.61514379e-06
      -2.54109884e-21 -2.54109884e-21 -2.54109884e-21 -2.54109884e-21
      -2.54109884e-21 -2.54109884e-21 -2.54109884e-21 -2.54109884e-21
      -2.54109884e-21 -2.54109884e-21 -2.54109884e-21 -2.54109884e-21
      -2.54109884e-21 -2.54109884e-21 -2.54109884e-21 -2.54109884e-21
      -2.54109884e-21 -2.54109884e-21 -2.54109884e-21 -2.54109884e-21
      -2.54109884e-21 -2.54109884e-21 -2.54109884e-21 -2.54109884e-21
      -2.54109884e-21 -2.54109884e-21 -5.26876920e-06 -1.36892832e-05
      -1.58428084e-05 -1.58428084e-05 -1.12290754e-05 -2.69190627e-06
      -2.54109884e-21 -2.54109884e-21 -2.54109884e-21 5.19319929e-06
      1.41058854e-05 1.58428084e-05 1.58428084e-05 1.12952503e-05
      1.73692308e-06 -2.54109884e-21 -2.54109884e-21 -2.54109884e-21
      -5.26876920e-06 -1.47660458e-05 -1.58428084e-05 -1.58428084e-05
      -1.12290754e-05 -1.61514379e-06 -2.54109884e-21 -2.54109884e-21
      -2.54109884e-21 -2.54109884e-21 -2.54109884e-21 -2.54109884e-21
      -2.54109884e-21 -2.54109884e-21 -2.54109884e-21 -2.54109884e-21
      -2.54109884e-21 -2.54109884e-21 -2.54109884e-21 -2.54109884e-21
      -2.54109884e-21 -2.54109884e-21 -2.54109884e-21 -2.54109884e-21
      -2.54109884e-21 -2.54109884e-21 -2.54109884e-21 -2.54109884e-21
      -2.54109884e-21 -2.54109884e-21 -2.54109884e-21 -2.54109884e-21
      -5.26876920e-06 -1.36892832e-05 -1.58428084e-05 -1.58428084e-05
      -1.12290754e-05 -2.69190627e-06 -2.54109884e-21 -2.54109884e-21
      -2.54109884e-21 5.19319929e-06 1.41058854e-05 1.58428084e-05
      1.58428084e-05 1.12952503e-05 1.73692308e-06 -2.54109884e-21
      -2.54109884e-21 -2.54109884e-21 -5.26876920e-06 -1.47660458e-05
      -1.58428084e-05 -1.58428084e-05 -1.12290754e-05 -1.61514379e-06
      -2.54109884e-21 -2.54109884e-21 -2.54109884e-21 -2.54109884e-21
      -2.54109884e-21 -2.54109884e-21 -2.54109884e-21 -2.54109884e-21
      -2.54109884e-21 -2.54109884e-21 -2.54109884e-21 -2.54109884e-21
      -2.54109884e-21 -2.54109884e-21 -2.54109884e-21 -2.54109884e-21
      -2.54109884e-21 -2.54109884e-21 -2.54109884e-21 -2.54109884e-21
      -2.54109884e-21 -2.54109884e-21 -2.54109884e-21 -2.54109884e-21
      -2.54109884e-21 -2.54109884e-21 -5.26876920e-06 -1.36892832e-05
      -1.58428084e-05 -1.58428084e-05 -1.12290754e-05 -2.69190627e-06
      -2.54109884e-21 -2.54109884e-21 -2.54109884e-21 5.19319929e-06
      1.41058854e-05 1.58428084e-05 1.58428084e-05 1.12952503e-05
      1.73692308e-06 -2.54109884e-21 -2.54109884e-21 -2.54109884e-21
      -5.26876920e-06 -1.47660458e-05 -1.58428084e-05 -1.58428084e-05
      -1.12290754e-05 -1.61514379e-06 -2.54109884e-21 -2.54109884e-21
      -2.54109884e-21 -2.54109884e-21 -2.54109884e-21 -2.54109884e-21
      -2.54109884e-21 -2.54109884e-21 -2.54109884e-21 -2.54109884e-21
      -2.54109884e-21 -2.54109884e-21 -2.54109884e-21 -2.54109884e-21
      -2.54109884e-21 -2.54109884e-21 -2.54109884e-21 -2.54109884e-21
      -2.54109884e-21 -2.54109884e-21 -2.54109884e-21 -2.54109884e-21
      -2.54109884e-21 -2.54109884e-21 -2.54109884e-21 -2.54109884e-21
      -5.26876920e-06 -1.36892832e-05 -1.58428084e-05 -1.58428084e-05
      -1.12290754e-05 -2.69190627e-06 -2.54109884e-21 -2.54109884e-21
      -2.54109884e-21 9.73918577e-06 1.56113383e-05 1.58428084e-05
      1.58428084e-05 1.09449838e-05 1.60955335e-06 -2.54109884e-21
      -2.54109884e-21 -2.54109884e-21 -5.26876920e-06 -1.47660458e-05
      -1.58428084e-05 -1.58428084e-05 -1.12290754e-05 -1.61514379e-06
      -2.54109884e-21 -2.54109884e-21 -2.54109884e-21 -2.54109884e-21
      -2.54109884e-21 -2.54109884e-21 -2.54109884e-21 -2.54109884e-21
      -2.54109884e-21 -2.54109884e-21 -2.54109884e-21 -2.54109884e-21
      -2.54109884e-21 -2.54109884e-21 -2.54109884e-21 -2.54109884e-21
      -2.54109884e-21 -2.54109884e-21 -2.54109884e-21 -2.54109884e-21
      -2.54109884e-21 -2.54109884e-21 -2.54109884e-21 -2.54109884e-21
      -2.54109884e-21 -2.54109884e-21 -5.26876920e-06 -1.36892832e-05
      -1.58428084e-05 -1.58428084e-05 -1.12290754e-05 -2.69190627e-06
      -2.54109884e-21 -2.54109884e-21 8.14069040e-07 1.08250388e-05
      1.58428084e-05 1.58428084e-05 1.58428084e-05 6.35248443e-06
      8.85961455e-08 -2.54109884e-21 -2.54109884e-21 -2.54109884e-21
      -5.26876920e-06 -1.47660458e-05 -1.58428084e-05 -1.58428084e-05
      -1.12290754e-05 -1.61514379e-06 -2.54109884e-21 -2.54109884e-21
      -2.54109884e-21 -2.54109884e-21 -2.54109884e-21 -2.54109884e-21
      -2.54109884e-21 -2.54109884e-21 -2.54109884e-21 -2.54109884e-21
      -2.54109884e-21 -2.54109884e-21 -2.54109884e-21 -2.54109884e-21
      -2.54109884e-21 -2.54109884e-21 -2.54109884e-21 -2.54109884e-21
      -2.54109884e-21 -2.54109884e-21 -2.54109884e-21 -2.54109884e-21
      -2.54109884e-21 -2.54109884e-21 -2.54109884e-21 -2.54109884e-21
      -9.30662827e-06 -1.54726713e-05 -1.58428084e-05 -1.58428084e-05
      -1.12290754e-05 -2.69190627e-06 -2.54109884e-21 -2.54109884e-21
      3.90191735e-06 1.23689624e-05 1.58428084e-05 1.58428084e-05
      1.47199544e-05 5.18619800e-06 -2.54109884e-21 -2.54109884e-21
      -2.54109884e-21 -2.54109884e-21 -1.01814976e-05 -1.56745646e-05
      -1.58428084e-05 -1.58428084e-05 -1.12290754e-05 -1.61514379e-06
      -2.54109884e-21 -2.54109884e-21 -2.54109884e-21 -2.54109884e-21
      -2.54109884e-21 -2.54109884e-21 -2.54109884e-21 -2.54109884e-21
      -2.54109884e-21 -2.54109884e-21 -2.54109884e-21 -2.54109884e-21
      -2.54109884e-21 -2.54109884e-21 -2.54109884e-21 -2.54109884e-21
      -2.54109884e-21 -2.54109884e-21 -2.54109884e-21 -2.54109884e-21
      -2.54109884e-21 -2.54109884e-21 -2.54109884e-21 -2.54109884e-21
      -2.54109884e-21 -3.95869665e-06 -1.20741397e-05 -1.58428084e-05
      -1.58428084e-05 -1.53016917e-05 -6.46634817e-06 -2.54109884e-21
      -2.54109884e-21 -2.54109884e-21 3.90191735e-06 1.23689624e-05
      1.58428084e-05 1.58428084e-05 1.25865326e-05 3.47384616e-06
      -2.54109884e-21 -2.54109884e-21 -2.54109884e-21 -3.95869665e-06
      -1.31509023e-05 -1.58428084e-05 -1.58428084e-05 -1.58428084e-05
      -1.03205575e-05 -1.34595314e-06 -2.54109884e-21 -2.54109884e-21
      -2.54109884e-21 -2.54109884e-21 -2.54109884e-21 -2.54109884e-21
      -2.54109884e-21 -2.54109884e-21 -2.54109884e-21 -2.54109884e-21
      -2.54109884e-21 -2.54109884e-21 -2.54109884e-21 -2.54109884e-21
      -2.54109884e-21 -2.54109884e-21 -2.54109884e-21 -2.54109884e-21
      -2.54109884e-21 -2.54109884e-21 -2.54109884e-21 -2.54109884e-21
      -2.54109884e-21 -2.54109884e-21 -2.54109884e-21 -3.95869665e-06
      -1.20741397e-05 -1.58428084e-05 -1.58428084e-05 -1.25391480e-05
      -4.27340137e-06 -2.54109884e-21 -2.54109884e-21 -2.54109884e-21
      3.90191735e-06 1.23689624e-05 1.58428084e-05 1.58428084e-05
      1.25865326e-05 3.47384616e-06 -2.54109884e-21 -2.54109884e-21
      -2.54109884e-21 -3.95869665e-06 -1.31509023e-05 -1.58428084e-05
      -1.58428084e-05 -1.58428084e-05 -5.87891191e-06 -2.54109884e-21
      -2.54109884e-21 -2.54109884e-21 -2.54109884e-21 -2.54109884e-21
      -2.54109884e-21 -2.54109884e-21 -2.54109884e-21 -2.54109884e-21
      -2.54109884e-21 -2.54109884e-21 -2.54109884e-21 -2.54109884e-21
      -2.54109884e-21 -2.54109884e-21 -2.54109884e-21 -2.54109884e-21
      -2.54109884e-21 -2.54109884e-21 -2.54109884e-21 -2.54109884e-21
      -2.54109884e-21 -2.54109884e-21 -2.54109884e-21 -2.54109884e-21
      -2.54109884e-21 -3.95869665e-06 -1.20741397e-05 -1.58428084e-05
      -1.58428084e-05 -1.25391480e-05 -4.27340137e-06 -2.54109884e-21
      -2.54109884e-21 -2.54109884e-21 3.90191735e-06 1.23689624e-05
      1.58428084e-05 1.58428084e-05 1.25865326e-05 3.47384616e-06
      -2.54109884e-21 -2.54109884e-21 -2.54109884e-21 -3.95869665e-06
      -1.31509023e-05 -1.58428084e-05 -1.58428084e-05 -1.41909786e-05
      -4.54035990e-06 -2.54109884e-21 -2.54109884e-21 -2.54109884e-21
      -2.54109884e-21 -2.54109884e-21 -2.54109884e-21 -2.54109884e-21
      -2.54109884e-21 -2.54109884e-21 -2.54109884e-21 -2.54109884e-21
      -2.54109884e-21 -2.54109884e-21 -2.54109884e-21 -2.54109884e-21
      -2.54109884e-21 -2.54109884e-21 -2.54109884e-21 -2.54109884e-21
      -2.54109884e-21 -2.54109884e-21 -2.54109884e-21 -2.54109884e-21
      -2.54109884e-21 -2.54109884e-21 -2.54109884e-21 -3.95869665e-06
      -1.20741397e-05 -1.58428084e-05 -1.58428084e-05 -1.25391480e-05
      -4.27340137e-06 -2.54109884e-21 -2.54109884e-21 -2.54109884e-21
      3.90191735e-06 1.23689624e-05 1.58428084e-05 1.58428084e-05
      1.25865326e-05 3.47384616e-06 -2.54109884e-21 -2.54109884e-21
      -2.54109884e-21 -3.95869665e-06 -1.31509023e-05 -1.58428084e-05
      -1.58428084e-05 -1.25391480e-05 -3.23028758e-06 -2.54109884e-21
      -2.54109884e-21 -2.54109884e-21 -2.54109884e-21 -2.54109884e-21
      -2.54109884e-21 -2.54109884e-21 -2.54109884e-21 -2.54109884e-21
      -2.54109884e-21 -2.54109884e-21 -2.54109884e-21 -2.54109884e-21
      -2.54109884e-21 -2.54109884e-21 -2.54109884e-21 -2.54109884e-21
      -2.54109884e-21 -2.54109884e-21 -2.54109884e-21 -2.54109884e-21
      -2.54109884e-21 -2.54109884e-21 -2.54109884e-21 -2.54109884e-21
      -2.54109884e-21 -3.95869665e-06 -1.20741397e-05 -1.58428084e-05
      -1.58428084e-05 -1.25391480e-05 -4.27340137e-06 -2.54109884e-21
      -2.54109884e-21 -2.54109884e-21 3.90191735e-06 1.23689624e-05
      1.58428084e-05 1.58428084e-05 1.25865326e-05 3.47384616e-06
      -2.54109884e-21 -2.54109884e-21 -2.54109884e-21 -3.95869665e-06
      -1.31509023e-05 -1.58428084e-05 -1.58428084e-05 -1.25391480e-05
      -3.23028758e-06 -2.54109884e-21 -2.54109884e-21 -2.54109884e-21
      -2.54109884e-21 -2.54109884e-21 -2.54109884e-21 -2.54109884e-21
      -2.54109884e-21 -2.54109884e-21 -2.54109884e-21 -2.54109884e-21
      -2.54109884e-21 -2.54109884e-21 -2.54109884e-21 -2.54109884e-21
      -2.54109884e-21 -2.54109884e-21 -2.54109884e-21 -2.54109884e-21
      -2.54109884e-21 -2.54109884e-21 -2.54109884e-21 -2.54109884e-21
      -2.54109884e-21 -2.54109884e-21 -2.54109884e-21 -3.95869665e-06
      -1.20741397e-05 -1.58428084e-05 -1.58428084e-05 -1.25391480e-05
      -4.27340137e-06 -2.54109884e-21 -2.54109884e-21 -2.54109884e-21
      3.90191735e-06 1.23689624e-05 1.58428084e-05 1.58428084e-05
      1.25865326e-05 3.47384616e-06 -2.54109884e-21 -2.54109884e-21
      -2.54109884e-21 -3.95869665e-06 -1.31509023e-05 -1.58428084e-05
      -1.58428084e-05 -1.25391480e-05 -3.23028758e-06 -2.54109884e-21
      -2.54109884e-21 -2.54109884e-21 -2.54109884e-21 -2.54109884e-21
      -2.54109884e-21 -2.54109884e-21 -2.54109884e-21 -2.54109884e-21
      -2.54109884e-21 -2.54109884e-21 -2.54109884e-21 -2.54109884e-21
      -2.54109884e-21 -2.54109884e-21 -2.54109884e-21 -2.54109884e-21
      -2.54109884e-21 -2.54109884e-21 -2.54109884e-21 -2.54109884e-21
      -2.54109884e-21 -2.54109884e-21 -2.54109884e-21 -2.54109884e-21
      -2.54109884e-21 -3.95869665e-06 -1.20741397e-05 -1.58428084e-05
      -1.58428084e-05 -1.25391480e-05 -4.27340137e-06 -2.54109884e-21
      -2.54109884e-21 -2.54109884e-21 3.90191735e-06 1.23689624e-05
      1.58428084e-05 1.58428084e-05 1.25865326e-05 3.47384616e-06
      -2.54109884e-21 -2.54109884e-21 -2.54109884e-21 -3.95869665e-06
      -1.31509023e-05 -1.58428084e-05 -1.58428084e-05 -1.25391480e-05
      -3.23028758e-06 -2.54109884e-21 -2.54109884e-21 -2.54109884e-21
      -2.54109884e-21 -2.54109884e-21 -2.54109884e-21 -2.54109884e-21
      -2.54109884e-21 -2.54109884e-21 -2.54109884e-21 -2.54109884e-21
      -2.54109884e-21 -2.54109884e-21 -2.54109884e-21 -2.54109884e-21
      -2.54109884e-21 -2.54109884e-21 -2.54109884e-21 -2.54109884e-21
      -2.54109884e-21 -2.54109884e-21 -2.54109884e-21 -2.54109884e-21
      -2.54109884e-21 -2.54109884e-21 -2.54109884e-21 -3.95869665e-06
      -1.20741397e-05 -1.58428084e-05 -1.58428084e-05 -1.11931950e-05
      -2.15352497e-06 -2.54109884e-21 -2.54109884e-21 -2.54109884e-21
      3.90191735e-06 1.23689624e-05 1.58428084e-05 1.58428084e-05
      1.25865326e-05 3.47384616e-06 -2.54109884e-21 -2.54109884e-21
      -2.54109884e-21 -3.95869665e-06 -1.31509023e-05 -1.58428084e-05
      -1.58428084e-05 -1.25391480e-05 -3.23028758e-06 -2.54109884e-21
      -2.54109884e-21 -2.54109884e-21 -2.54109884e-21 -2.54109884e-21
      -2.54109884e-21 -2.54109884e-21 -2.54109884e-21 -2.54109884e-21
      -2.54109884e-21 -2.54109884e-21 -2.54109884e-21 -2.54109884e-21
      -2.54109884e-21 -2.54109884e-21 -2.54109884e-21 -2.54109884e-21
      -2.54109884e-21 -2.54109884e-21 -2.54109884e-21 -2.54109884e-21
      -2.54109884e-21 -2.54109884e-21 -2.54109884e-21 -2.54109884e-21
      -2.54109884e-21 -1.31007232e-06 -7.56742884e-06 -1.44295582e-05
      -1.38261112e-05 -3.26170425e-06 -2.54109884e-21 -2.54109884e-21
      -2.54109884e-21 -2.54109884e-21 1.06671121e-06 7.18503316e-06
      1.45826880e-05 1.44392416e-05 7.23108496e-06 9.53604797e-07
      -2.54109884e-21 -2.54109884e-21 -2.54109884e-21 -1.31007232e-06
      -7.90391732e-06 -1.51361828e-05 -1.45327358e-05 -7.40051019e-06
      -1.07676249e-06 -2.54109884e-21 -2.54109884e-21 -2.54109884e-21
      -2.54109884e-21 -2.54109884e-21 -2.54109884e-21 -2.54109884e-21
      -2.54109884e-21 -2.54109884e-21 -2.54109884e-21 -2.54109884e-21
      -2.54109884e-21 -2.54109884e-21 -2.54109884e-21 -2.54109884e-21
      -2.54109884e-21 -2.54109884e-21 -2.54109884e-21 -2.54109884e-21
      -2.54109884e-21 -2.54109884e-21 -2.54109884e-21 -2.54109884e-21
      -2.54109884e-21 -2.54109884e-21 -2.54109884e-21 -2.54109884e-21
      -8.82874815e-07 -2.27291548e-06 -2.12788154e-06 -2.54109884e-21
      -2.54109884e-21 -2.54109884e-21 -2.54109884e-21 -2.54109884e-21
      -2.54109884e-21 7.29855003e-07 1.93610185e-06 1.92186099e-06
      7.15203612e-07 -2.54109884e-21 -2.54109884e-21 -2.54109884e-21
      -2.54109884e-21 -2.54109884e-21 -8.82874815e-07 -2.44115972e-06
      -2.32977436e-06 -8.07571894e-07 -2.54109884e-21 -2.54109884e-21
      -2.54109884e-21 -2.54109884e-21 -2.54109884e-21 -2.54109884e-21
      -2.54109884e-21 -2.54109884e-21 -2.54109884e-21 -2.54109884e-21
      -2.54109884e-21 -2.54109884e-21 -2.54109884e-21 -2.54109884e-21
      -2.54109884e-21 -2.54109884e-21 -2.54109884e-21 -2.54109884e-21
      -2.54109884e-21 -2.54109884e-21 -2.54109884e-21 -2.54109884e-21
      -2.54109884e-21 -2.54109884e-21 -2.54109884e-21 -2.54109884e-21
      -2.54109884e-21 -2.54109884e-21 -1.69044665e-06 -2.55761302e-06
      -1.24500662e-06 -2.54109884e-21 -2.54109884e-21 -2.54109884e-21
      -2.54109884e-21 -2.54109884e-21 -2.54109884e-21 7.29855003e-07
      1.85188787e-06 9.53604797e-07 -2.54109884e-21 -2.54109884e-21
      -2.54109884e-21 -2.54109884e-21 -2.54109884e-21 -2.54109884e-21
      -8.82874815e-07 -2.35572020e-06 -1.07676249e-06 -2.54109884e-21
      -2.54109884e-21 -2.54109884e-21 -2.54109884e-21 -2.54109884e-21
      -2.54109884e-21 -2.54109884e-21 -2.54109884e-21 -2.54109884e-21
      -2.54109884e-21 -2.54109884e-21 -2.54109884e-21 -2.54109884e-21
      -2.54109884e-21 -2.54109884e-21 -2.54109884e-21 -2.54109884e-21
      -2.54109884e-21 -2.54109884e-21 -2.54109884e-21 -2.54109884e-21
      -2.54109884e-21 -2.54109884e-21 -2.54109884e-21 -2.54109884e-21
      -2.54109884e-21 -2.54109884e-21 -2.54109884e-21 -1.31007232e-06
      -1.07640672e-05 -1.54156114e-05 -9.63957518e-06 -1.95163193e-06
      -2.54109884e-21 -2.54109884e-21 -2.54109884e-21 -2.54109884e-21
      2.02031606e-06 8.13863790e-06 1.41054752e-05 8.85613281e-06
      1.43040722e-06 -2.54109884e-21 -2.54109884e-21 -2.54109884e-21
      -2.54109884e-21 -1.31007232e-06 -7.90391732e-06 -1.47089859e-05
      -8.93294964e-06 -1.61514379e-06 -2.54109884e-21 -2.54109884e-21
      -2.54109884e-21 -2.54109884e-21 -2.54109884e-21 -2.54109884e-21
      -2.54109884e-21 -2.54109884e-21 -2.54109884e-21 -2.54109884e-21
      -2.54109884e-21 -2.54109884e-21 -2.54109884e-21 -2.54109884e-21
      -2.54109884e-21 -2.54109884e-21 -2.54109884e-21 -2.54109884e-21
      -2.54109884e-21 -2.54109884e-21 -2.54109884e-21 -2.54109884e-21
      -2.54109884e-21 -2.54109884e-21 -2.54109884e-21 -2.54109884e-21
      -1.31007232e-06 -7.22567074e-06 -1.39584745e-05 -1.58428084e-05
      -1.48460140e-05 -7.88213310e-06 -2.54109884e-21 -2.54109884e-21
      -2.54109884e-21 1.06671121e-06 8.72318742e-06 1.58428084e-05
      1.58428084e-05 1.38778141e-05 5.21076890e-06 -2.54109884e-21
      -2.54109884e-21 -2.54109884e-21 -1.31007232e-06 -7.76405250e-06
      -1.44968553e-05 -1.58428084e-05 -1.48460140e-05 -6.80537050e-06
      -2.54109884e-21 -2.54109884e-21 -2.54109884e-21 -2.54109884e-21
      -2.54109884e-21 -2.54109884e-21 -2.54109884e-21 -2.54109884e-21
      -2.54109884e-21 -2.54109884e-21 -2.54109884e-21 -2.54109884e-21
      -2.54109884e-21 -2.54109884e-21 -2.54109884e-21 -2.54109884e-21
      -2.54109884e-21 -2.54109884e-21 -2.54109884e-21 -2.54109884e-21
      -2.54109884e-21 -2.54109884e-21 -2.54109884e-21 -2.54109884e-21
      -2.54109884e-21 -2.54109884e-21 -2.64862456e-06 -1.04926448e-05
      -1.58428084e-05 -1.58428084e-05 -1.45327358e-05 -7.19861737e-06
      -2.54109884e-21 -2.54109884e-21 -2.54109884e-21 2.61063519e-06
      1.06320394e-05 1.58428084e-05 1.58428084e-05 1.38778141e-05
      5.21076890e-06 -2.54109884e-21 -2.54109884e-21 -2.54109884e-21
      -2.64862456e-06 -1.15357589e-05 -1.58428084e-05 -1.58428084e-05
      -1.58428084e-05 -8.77047933e-06 -2.54109884e-21 -2.54109884e-21
      -2.54109884e-21 -2.54109884e-21 -2.54109884e-21 -2.54109884e-21
      -2.54109884e-21 -2.54109884e-21 -2.54109884e-21 -2.54109884e-21
      -2.54109884e-21 -2.54109884e-21 -2.54109884e-21 -2.54109884e-21
      -2.54109884e-21 -2.54109884e-21 -2.54109884e-21 -2.54109884e-21
      -2.54109884e-21 -2.54109884e-21 -2.54109884e-21 -2.54109884e-21
      -2.54109884e-21 -2.54109884e-21 -2.54109884e-21 -2.54109884e-21
      -2.64862456e-06 -1.04926448e-05 -1.58428084e-05 -1.58428084e-05
      -1.38492205e-05 -5.88854482e-06 -2.54109884e-21 -2.54109884e-21
      -2.54109884e-21 2.61063519e-06 1.06320394e-05 1.58428084e-05
      1.58428084e-05 1.38778141e-05 5.21076890e-06 -2.54109884e-21
      -2.54109884e-21 -2.54109884e-21 -2.64862456e-06 -1.15357589e-05
      -1.58428084e-05 -1.58428084e-05 -1.41909786e-05 -5.46681849e-06
      -2.54109884e-21 -2.54109884e-21 -2.54109884e-21 -2.54109884e-21
      -2.54109884e-21 -2.54109884e-21 -2.54109884e-21 -2.54109884e-21
      -2.54109884e-21 -2.54109884e-21 -2.54109884e-21 -2.54109884e-21
      -2.54109884e-21 -2.54109884e-21 -2.54109884e-21 -2.54109884e-21
      -2.54109884e-21 -2.54109884e-21 -2.54109884e-21 -2.54109884e-21
      -2.54109884e-21 -2.54109884e-21 -2.54109884e-21 -2.54109884e-21
      -2.54109884e-21 -2.54109884e-21 -2.64862456e-06 -1.04926448e-05
      -1.58428084e-05 -1.58428084e-05 -1.38492205e-05 -5.88854482e-06
      -2.54109884e-21 -2.54109884e-21 -2.54109884e-21 2.61063519e-06
      1.06320394e-05 1.58428084e-05 1.58428084e-05 1.38778141e-05
      5.21076890e-06 -2.54109884e-21 -2.54109884e-21 -2.54109884e-21
      -2.64862456e-06 -1.15357589e-05 -1.58428084e-05 -1.58428084e-05
      -1.38492205e-05 -4.81178222e-06 -2.54109884e-21 -2.54109884e-21
      -2.54109884e-21 -2.54109884e-21 -2.54109884e-21 -2.54109884e-21
      -2.54109884e-21 -2.54109884e-21 -2.54109884e-21 -2.54109884e-21
      -2.54109884e-21 -2.54109884e-21 -2.54109884e-21 -2.54109884e-21
      -2.54109884e-21 -2.54109884e-21 -2.54109884e-21 -2.54109884e-21
      -2.54109884e-21 -2.54109884e-21 -2.54109884e-21 -2.54109884e-21
      -2.54109884e-21 -2.54109884e-21 -2.54109884e-21 -2.54109884e-21
      -2.64862456e-06 -1.04926448e-05 -1.58428084e-05 -1.58428084e-05
      -1.38492205e-05 -5.88854482e-06 -2.54109884e-21 -2.54109884e-21
      -2.54109884e-21 2.61063519e-06 1.06320394e-05 1.58428084e-05
      1.58428084e-05 1.38778141e-05 5.21076890e-06 -2.54109884e-21
      -2.54109884e-21 -2.54109884e-21 -2.64862456e-06 -1.15357589e-05
      -1.58428084e-05 -1.58428084e-05 -1.38492205e-05 -4.81178222e-06
      -2.54109884e-21 -2.54109884e-21 -2.54109884e-21 -2.54109884e-21
      -2.54109884e-21 -2.54109884e-21 -2.54109884e-21 -2.54109884e-21
      -2.54109884e-21 -2.54109884e-21 -2.54109884e-21 -2.54109884e-21
      -2.54109884e-21 -2.54109884e-21 -2.54109884e-21 -2.54109884e-21
      -2.54109884e-21 -2.54109884e-21 -2.54109884e-21 -2.54109884e-21
      -2.54109884e-21 -2.54109884e-21 -2.54109884e-21 -2.54109884e-21
      -2.54109884e-21 -2.54109884e-21 -2.64862456e-06 -1.04926448e-05
      -1.58428084e-05 -1.58428084e-05 -1.38492205e-05 -5.88854482e-06
      -2.54109884e-21 -2.54109884e-21 -2.54109884e-21 2.61063519e-06
      1.06320394e-05 1.58428084e-05 1.58428084e-05 1.38778141e-05
      5.21076890e-06 -2.54109884e-21 -2.54109884e-21 -2.54109884e-21
      -2.64862456e-06 -1.15357589e-05 -1.58428084e-05 -1.58428084e-05
      -1.38492205e-05 -4.81178222e-06 -2.54109884e-21 -2.54109884e-21
      -2.54109884e-21 -2.54109884e-21 -2.54109884e-21 -2.54109884e-21
      -2.54109884e-21 -2.54109884e-21 -2.54109884e-21 -2.54109884e-21
      -2.54109884e-21 -2.54109884e-21 -2.54109884e-21 -2.54109884e-21
      -2.54109884e-21 -2.54109884e-21 -2.54109884e-21 -2.54109884e-21
      -2.54109884e-21 -2.54109884e-21 -2.54109884e-21 -2.54109884e-21
      -2.54109884e-21 -2.54109884e-21 -2.54109884e-21 -2.54109884e-21
      -2.64862456e-06 -1.04926448e-05 -1.58428084e-05 -1.58428084e-05
      -1.38492205e-05 -5.88854482e-06 -2.54109884e-21 -2.54109884e-21
      -2.54109884e-21 2.61063519e-06 1.06320394e-05 1.58428084e-05
      1.58428084e-05 1.38778141e-05 5.21076890e-06 -2.54109884e-21
      -2.54109884e-21 -2.54109884e-21 -2.64862456e-06 -1.15357589e-05
      -1.58428084e-05 -1.58428084e-05 -1.38492205e-05 -4.81178222e-06
      -2.54109884e-21 -2.54109884e-21 -2.54109884e-21 -2.54109884e-21
      -2.54109884e-21 -2.54109884e-21 -2.54109884e-21 -2.54109884e-21
      -2.54109884e-21 -2.54109884e-21 -2.54109884e-21 -2.54109884e-21
      -2.54109884e-21 -2.54109884e-21 -2.54109884e-21 -2.54109884e-21
      -2.54109884e-21 -2.54109884e-21 -2.54109884e-21 -2.54109884e-21
      -2.54109884e-21 -2.54109884e-21 -2.54109884e-21 -2.54109884e-21
      -2.54109884e-21 -2.54109884e-21 -2.64862456e-06 -1.04926448e-05
      -1.58428084e-05 -1.58428084e-05 -1.38492205e-05 -5.88854482e-06
      -2.54109884e-21 -2.54109884e-21 -2.54109884e-21 2.61063519e-06
      1.06320394e-05 1.58428084e-05 1.58428084e-05 1.38778141e-05
      5.21076890e-06 -2.54109884e-21 -2.54109884e-21 -2.54109884e-21
      -2.64862456e-06 -1.15357589e-05 -1.58428084e-05 -1.58428084e-05
      -1.38492205e-05 -4.81178222e-06 -2.54109884e-21 -2.54109884e-21
      -2.54109884e-21 -2.54109884e-21 -2.54109884e-21 -2.54109884e-21
      -2.54109884e-21 -2.54109884e-21 -2.54109884e-21 -2.54109884e-21
      -2.54109884e-21 -2.54109884e-21 -2.54109884e-21 -2.54109884e-21
      -2.54109884e-21 -2.54109884e-21 -2.54109884e-21 -2.54109884e-21
      -2.54109884e-21 -2.54109884e-21 -2.54109884e-21 -2.54109884e-21
      -2.54109884e-21 -2.54109884e-21 -2.54109884e-21 -2.54109884e-21
      -2.64862456e-06 -1.04926448e-05 -1.58428084e-05 -1.58428084e-05
      -1.38492205e-05 -5.88854482e-06 -2.54109884e-21 -2.54109884e-21
      -2.54109884e-21 2.61063519e-06 1.06320394e-05 1.58428084e-05
      1.58428084e-05 1.38778141e-05 5.21076890e-06 -2.54109884e-21
      -2.54109884e-21 -2.54109884e-21 -2.64862456e-06 -1.15357589e-05
      -1.58428084e-05 -1.58428084e-05 -1.38492205e-05 -4.81178222e-06
      -2.54109884e-21 -2.54109884e-21 -2.54109884e-21 -2.54109884e-21
      -2.54109884e-21 -2.54109884e-21 -2.54109884e-21 -2.54109884e-21
      -2.54109884e-21 -2.54109884e-21 -2.54109884e-21 -2.54109884e-21
      -2.54109884e-21 -2.54109884e-21 -2.54109884e-21 -2.54109884e-21
      -2.54109884e-21 -2.54109884e-21 -2.54109884e-21 -2.54109884e-21
      -2.54109884e-21 -2.54109884e-21 -2.54109884e-21 -2.54109884e-21
      -2.54109884e-21 -2.54109884e-21 -3.18700563e-06 -1.22760330e-05
      -1.58428084e-05 -1.58428084e-05 -1.34790835e-05 -3.93691289e-06
      -2.54109884e-21 -2.54109884e-21 -2.54109884e-21 2.61063519e-06
      1.06320394e-05 1.58428084e-05 1.58428084e-05 1.38778141e-05
      5.21076890e-06 -2.54109884e-21 -2.54109884e-21 -2.54109884e-21
      -3.55714292e-06 -1.29826585e-05 -1.58428084e-05 -1.58428084e-05
      -1.38492205e-05 -4.81178222e-06 -2.54109884e-21 -2.54109884e-21
      -2.54109884e-21 -2.54109884e-21 -2.54109884e-21 -2.54109884e-21
      -2.54109884e-21 -2.54109884e-21 -2.54109884e-21 -2.54109884e-21
      -2.54109884e-21 -2.54109884e-21 -2.54109884e-21 -2.54109884e-21
      -2.54109884e-21 -2.54109884e-21 -2.54109884e-21 -2.54109884e-21
      -2.54109884e-21 -2.54109884e-21 -2.54109884e-21 -2.54109884e-21
      -2.54109884e-21 -2.54109884e-21 -2.54109884e-21 -2.54109884e-21
      -4.26376801e-06 -1.58428084e-05 -1.58428084e-05 -1.58428084e-05
      -1.27724579e-05 -2.54109884e-21 -2.54109884e-21 -2.54109884e-21
      1.20706795e-06 8.45010254e-06 1.54681784e-05 1.58428084e-05
      1.58428084e-05 1.23723612e-05 6.64782817e-07 -2.54109884e-21
      -2.54109884e-21 -2.54109884e-21 -5.34053061e-06 -1.58428084e-05
      -1.58428084e-05 -1.58428084e-05 -1.27724579e-05 -2.42271562e-06
      -2.54109884e-21 -2.54109884e-21 -2.54109884e-21 -2.54109884e-21
      -2.54109884e-21 -2.54109884e-21 -2.54109884e-21 -2.54109884e-21
      -2.54109884e-21 -2.54109884e-21 -2.54109884e-21 -2.54109884e-21
      -2.54109884e-21 -2.54109884e-21 -2.54109884e-21 -2.54109884e-21
      -2.54109884e-21 -2.54109884e-21 -2.54109884e-21 -2.54109884e-21
      -2.54109884e-21 -2.54109884e-21 -2.54109884e-21 -2.54109884e-21
      -2.54109884e-21 -8.82874815e-07 -7.33958996e-06 -1.58428084e-05
      -1.58428084e-05 -1.54156114e-05 -9.26943812e-06 -2.54109884e-21
      -2.54109884e-21 -2.54109884e-21 1.29128193e-06 8.89511648e-06
      1.58428084e-05 1.58428084e-05 1.57024515e-05 1.10741803e-05
      -2.54109884e-21 -2.54109884e-21 -2.54109884e-21 -2.54109884e-21
      -5.34053061e-06 -1.58428084e-05 -1.58428084e-05 -1.58428084e-05
      -1.16956953e-05 -2.54109884e-21 -2.54109884e-21 -2.54109884e-21
      -2.54109884e-21 -2.54109884e-21 -2.54109884e-21 -2.54109884e-21
      -2.54109884e-21 -2.54109884e-21 -2.54109884e-21 -2.54109884e-21
      -2.54109884e-21 -2.54109884e-21 -2.54109884e-21 -2.54109884e-21
      -2.54109884e-21 -2.54109884e-21 -2.54109884e-21 -2.54109884e-21
      -2.54109884e-21 -2.54109884e-21 -2.54109884e-21 -2.54109884e-21
      -2.54109884e-21 -2.54109884e-21 -2.54109884e-21 -1.31007232e-06
      -8.87750139e-06 -1.58428084e-05 -1.58428084e-05 -1.51877721e-05
      -7.50368872e-06 -2.54109884e-21 -2.54109884e-21 -2.54109884e-21
      1.29128193e-06 8.89511648e-06 1.58428084e-05 1.58428084e-05
      1.51971672e-05 6.94769233e-06 -2.54109884e-21 -2.54109884e-21
      -2.54109884e-21 -1.11071347e-06 -9.18530804e-06 -1.58428084e-05
      -1.58428084e-05 -1.53016917e-05 -7.30980082e-06 -2.54109884e-21
      -2.54109884e-21 -2.54109884e-21 -2.54109884e-21 -2.54109884e-21
      -2.54109884e-21 -2.54109884e-21 -2.54109884e-21 -2.54109884e-21
      -2.54109884e-21 -2.54109884e-21 -2.54109884e-21 -2.54109884e-21
      -2.54109884e-21 -2.54109884e-21 -2.54109884e-21 -2.54109884e-21
      -2.54109884e-21 -2.54109884e-21 -2.54109884e-21 -2.54109884e-21
      -2.54109884e-21 -2.54109884e-21 -2.54109884e-21 -2.54109884e-21
      -2.54109884e-21 -1.31007232e-06 -8.87750139e-06 -1.58428084e-05
      -1.58428084e-05 -1.51877721e-05 -7.50368872e-06 -2.54109884e-21
      -2.54109884e-21 -2.54109884e-21 1.29128193e-06 8.89511648e-06
      1.58428084e-05 1.58428084e-05 1.51971672e-05 6.94769233e-06
      -2.54109884e-21 -2.54109884e-21 -2.54109884e-21 -1.31007232e-06
      -9.95426399e-06 -1.58428084e-05 -1.58428084e-05 -1.51877721e-05
      -6.42692612e-06 -2.54109884e-21 -2.54109884e-21 -2.54109884e-21
      -2.54109884e-21 -2.54109884e-21 -2.54109884e-21 -2.54109884e-21
      -2.54109884e-21 -2.54109884e-21 -2.54109884e-21 -2.54109884e-21
      -2.54109884e-21 -2.54109884e-21 -2.54109884e-21 -2.54109884e-21
      -2.54109884e-21 -2.54109884e-21 -2.54109884e-21 -2.54109884e-21
      -2.54109884e-21 -2.54109884e-21 -2.54109884e-21 -2.54109884e-21
      -2.54109884e-21 -2.54109884e-21 -2.54109884e-21 -1.31007232e-06
      -8.87750139e-06 -1.58428084e-05 -1.58428084e-05 -1.51877721e-05
      -7.50368872e-06 -2.54109884e-21 -2.54109884e-21 -2.54109884e-21
      1.29128193e-06 8.89511648e-06 1.58428084e-05 1.58428084e-05
      1.51971672e-05 6.94769233e-06 -2.54109884e-21 -2.54109884e-21
      -2.54109884e-21 -1.31007232e-06 -9.95426399e-06 -1.58428084e-05
      -1.58428084e-05 -1.51877721e-05 -6.42692612e-06 -2.54109884e-21
      -2.54109884e-21 -2.54109884e-21 -2.54109884e-21 -2.54109884e-21
      -2.54109884e-21 -2.54109884e-21 -2.54109884e-21 -2.54109884e-21
      -2.54109884e-21 -2.54109884e-21 -2.54109884e-21 -2.54109884e-21
      -2.54109884e-21 -2.54109884e-21 -2.54109884e-21 -2.54109884e-21
      -2.54109884e-21 -2.54109884e-21 -2.54109884e-21 -2.54109884e-21
      -2.54109884e-21 -2.54109884e-21 -2.54109884e-21 -2.54109884e-21
      -2.54109884e-21 -1.31007232e-06 -8.87750139e-06 -1.58428084e-05
      -1.58428084e-05 -1.51877721e-05 -7.50368872e-06 -2.54109884e-21
      -2.54109884e-21 -2.54109884e-21 1.29128193e-06 8.89511648e-06
      1.58428084e-05 1.58428084e-05 1.51971672e-05 6.94769233e-06
      -2.54109884e-21 -2.54109884e-21 -2.54109884e-21 -1.31007232e-06
      -9.95426399e-06 -1.58428084e-05 -1.58428084e-05 -1.51877721e-05
      -6.42692612e-06 -2.54109884e-21 -2.54109884e-21 -2.54109884e-21
      -2.54109884e-21 -2.54109884e-21 -2.54109884e-21 -2.54109884e-21
      -2.54109884e-21 -2.54109884e-21 -2.54109884e-21 -2.54109884e-21
      -2.54109884e-21 -2.54109884e-21 -2.54109884e-21 -2.54109884e-21
      -2.54109884e-21 -2.54109884e-21 -2.54109884e-21 -2.54109884e-21
      -2.54109884e-21 -2.54109884e-21 -2.54109884e-21 -2.54109884e-21
      -2.54109884e-21 -2.54109884e-21 -2.54109884e-21 -1.31007232e-06
      -8.87750139e-06 -1.58428084e-05 -1.58428084e-05 -1.51877721e-05
      -7.50368872e-06 -2.54109884e-21 -2.54109884e-21 -2.54109884e-21
      1.29128193e-06 8.89511648e-06 1.58428084e-05 1.58428084e-05
      1.51971672e-05 6.94769233e-06 -2.54109884e-21 -2.54109884e-21
      -2.54109884e-21 -1.31007232e-06 -9.95426399e-06 -1.58428084e-05
      -1.58428084e-05 -1.51877721e-05 -6.42692612e-06 -2.54109884e-21
      -2.54109884e-21 -2.54109884e-21 -2.54109884e-21 -2.54109884e-21
      -2.54109884e-21 -2.54109884e-21 -2.54109884e-21 -2.54109884e-21
      -2.54109884e-21 -2.54109884e-21 -2.54109884e-21 -2.54109884e-21
      -2.54109884e-21 -2.54109884e-21 -2.54109884e-21 -2.54109884e-21
      -2.54109884e-21 -2.54109884e-21 -2.54109884e-21 -2.54109884e-21
      -2.54109884e-21 -2.54109884e-21 -2.54109884e-21 -2.54109884e-21
      -2.54109884e-21 -1.31007232e-06 -8.87750139e-06 -1.58428084e-05
      -1.58428084e-05 -1.51877721e-05 -7.50368872e-06 -2.54109884e-21
      -2.54109884e-21 -2.54109884e-21 1.29128193e-06 8.89511648e-06
      1.58428084e-05 1.58428084e-05 1.51971672e-05 6.94769233e-06
      -2.54109884e-21 -2.54109884e-21 -2.54109884e-21 -1.31007232e-06
      -9.95426399e-06 -1.58428084e-05 -1.58428084e-05 -1.51877721e-05
      -6.42692612e-06 -2.54109884e-21 -2.54109884e-21 -2.54109884e-21
      -2.54109884e-21 -2.54109884e-21 -2.54109884e-21 -2.54109884e-21
      -2.54109884e-21 -2.54109884e-21 -2.54109884e-21 -2.54109884e-21
      -2.54109884e-21 -2.54109884e-21 -2.54109884e-21 -2.54109884e-21
      -2.54109884e-21 -2.54109884e-21 -2.54109884e-21 -2.54109884e-21
      -2.54109884e-21 -2.54109884e-21 -2.54109884e-21 -2.54109884e-21
      -2.54109884e-21 -2.54109884e-21 -2.54109884e-21 -1.31007232e-06
      -8.87750139e-06 -1.58428084e-05 -1.58428084e-05 -1.43048974e-05
      -1.93125811e-06 -2.67153246e-06 -2.67153246e-06 -2.67153246e-06
      -1.38025052e-06 6.22358402e-06 1.31712759e-05 1.31712759e-05
      1.25541146e-05 4.27615987e-06 -2.67153246e-06 -2.67153246e-06
      -2.67153246e-06 -3.52592747e-06 -9.72368980e-06 -1.51361828e-05
      -1.58428084e-05 -1.51877721e-05 -6.42692612e-06 -2.54109884e-21
      -2.54109884e-21 -2.54109884e-21 -2.54109884e-21 -2.54109884e-21
      -2.54109884e-21 -2.54109884e-21 -2.54109884e-21 -2.54109884e-21
      -2.54109884e-21 -2.54109884e-21 -2.54109884e-21 -2.54109884e-21
      -2.54109884e-21 -2.54109884e-21 -2.54109884e-21 -2.54109884e-21
      -2.54109884e-21 -2.54109884e-21 -2.54109884e-21 -2.54109884e-21
      -2.54109884e-21 -2.54109884e-21 -2.54109884e-21 -2.54109884e-21
      -2.54109884e-21 -1.31007232e-06 -8.87750139e-06 -1.58428084e-05
      -1.40770589e-05 -9.50274807e-06 -1.10310257e-05 -1.58428084e-05
      -1.58428084e-05 -1.58428084e-05 -1.51129534e-05 -9.78021853e-06
      -2.34995468e-06 0. -6.45640966e-07 -8.89511648e-06 -1.58428084e-05
      -1.58428084e-05 -1.58428084e-05 -1.49599337e-05 -1.01007236e-05
      -1.18719445e-05 -1.58428084e-05 -1.51877721e-05 -6.42692612e-06
      -2.54109884e-21 -2.54109884e-21 -2.54109884e-21 -2.54109884e-21
      -2.54109884e-21 -2.54109884e-21 -2.54109884e-21 -2.54109884e-21
      -2.54109884e-21 -2.54109884e-21 -2.54109884e-21 -2.54109884e-21
      -2.54109884e-21 -2.54109884e-21 -2.54109884e-21 -2.54109884e-21
      -2.54109884e-21 -2.54109884e-21 -2.54109884e-21 -2.54109884e-21
      -2.54109884e-21 -2.54109884e-21 -2.54109884e-21 -2.54109884e-21
      -2.54109884e-21 -2.54109884e-21 -6.55036160e-07 -5.76306275e-06
      -1.11573136e-05 -9.77467425e-06 -1.11940008e-05 -1.55736179e-05
      -1.58428084e-05 -1.58428084e-05 -1.58428084e-05 -1.58428084e-05
      -1.32321729e-05 -5.21076890e-06 0. -6.45640966e-07 -1.29819937e-05
      -1.58428084e-05 -1.58428084e-05 -1.58428084e-05 -1.58428084e-05
      -1.45327358e-05 -1.41909786e-05 -1.28817119e-05 -1.13898177e-05
      -3.23028758e-06 -2.54109884e-21 -2.54109884e-21 -2.54109884e-21
      -2.54109884e-21 -2.54109884e-21 -2.54109884e-21 -2.54109884e-21
      -2.54109884e-21 -2.54109884e-21 -2.54109884e-21 -2.54109884e-21
      -2.54109884e-21 -2.54109884e-21 -2.54109884e-21 -2.54109884e-21
      -2.54109884e-21 -2.54109884e-21 -2.54109884e-21 -2.54109884e-21
      -2.54109884e-21 -2.54109884e-21 -2.54109884e-21 -2.54109884e-21
      -2.54109884e-21 -2.54109884e-21 -2.54109884e-21 -2.54109884e-21
      -8.82874815e-07 -2.18747596e-06 -6.51377559e-06 -1.36892832e-05
      -1.58428084e-05 -1.58428084e-05 -1.58428084e-05 -1.58428084e-05
      -1.58428084e-05 -1.51129534e-05 -1.29242098e-05 -3.92380844e-06
      -4.88441447e-06 -1.58428084e-05 -1.58428084e-05 -1.58428084e-05
      -1.58428084e-05 -1.58428084e-05 -1.58428084e-05 -1.31941842e-05
      -5.11269218e-06 -2.54960787e-06 -2.54109884e-21 -2.54109884e-21
      -2.54109884e-21 -2.54109884e-21 -2.54109884e-21 -2.54109884e-21
      -2.54109884e-21 -2.54109884e-21 -2.54109884e-21 -2.54109884e-21
      -2.54109884e-21 -2.54109884e-21 -2.54109884e-21 -2.54109884e-21
      -2.54109884e-21 -2.54109884e-21 -2.54109884e-21 -2.54109884e-21
      -2.54109884e-21 -2.54109884e-21 -2.54109884e-21 -2.54109884e-21
      -2.54109884e-21 -2.54109884e-21 -2.54109884e-21 -2.54109884e-21
      -2.54109884e-21 -2.54109884e-21 -2.54109884e-21 -2.54109884e-21
      -8.82874815e-07 -2.27291548e-06 -2.67153246e-06 -2.67153246e-06
      -2.67153246e-06 -2.67153246e-06 -2.67153246e-06 -2.67153246e-06
      -2.67153246e-06 -1.22647384e-06 -1.36683252e-06 -2.67153246e-06
      -2.67153246e-06 -2.67153246e-06 -2.67153246e-06 -2.67153246e-06
      -2.67153246e-06 -1.98801649e-06 -4.37434778e-07 -2.54109884e-21
      -2.54109884e-21 -2.54109884e-21 -2.54109884e-21 -2.54109884e-21
      -2.54109884e-21 -2.54109884e-21 -2.54109884e-21 -2.54109884e-21
      -2.54109884e-21 -2.54109884e-21 -2.54109884e-21 -2.54109884e-21
      -2.54109884e-21 -2.54109884e-21 -2.54109884e-21 -2.54109884e-21</_>
    <_>
      2.24993127e-21 2.24993127e-21 2.24993127e-21 2.24993127e-21
      2.24993127e-21 2.24993127e-21 2.24993127e-21 2.24993127e-21
      2.24993127e-21 2.24993127e-21 2.24993127e-21 2.24993127e-21
      2.24993127e-21 2.24993127e-21 2.24993127e-21 2.24993127e-21
      5.28520196e-08 1.32130054e-07 1.87935435e-21 1.87935435e-21
      1.87935435e-21 1.87935435e-21 1.87935435e-21 1.87935435e-21
      -4.40433512e-09 1.87935435e-21 1.87935435e-21 1.87935435e-21
      1.87935435e-21 1.87935435e-21 1.87935435e-21 1.87935435e-21
      1.87935435e-21 6.20276408e-09 1.05202353e-07 2.24993127e-21
      2.24993127e-21 2.24993127e-21 2.24993127e-21 2.24993127e-21
      2.24993127e-21 2.24993127e-21 2.24993127e-21 2.24993127e-21
      2.24993127e-21 2.24993127e-21 2.24993127e-21 2.24993127e-21
      2.24993127e-21 2.24993127e-21 2.24993127e-21 2.24993127e-21
      2.24993127e-21 2.24993127e-21 2.24993127e-21 2.24993127e-21
      2.24993127e-21 2.24993127e-21 2.24993127e-21 2.24993127e-21
      2.24993127e-21 2.24993127e-21 2.24993127e-21 2.24993127e-21
      2.24993127e-21 -5.86047736e-06 -1.18266389e-05 -4.88819069e-06 0.
      0. 0. 0. 0. 0. 0. 0. 0. 0. 0. 0. 0. 0. 0. 8.13210903e-08
      2.83010053e-07 -6.41044608e-07 1.05202353e-07 2.24993127e-21
      2.24993127e-21 2.24993127e-21 2.24993127e-21 2.24993127e-21
      2.24993127e-21 2.24993127e-21 2.24993127e-21 2.24993127e-21
      2.24993127e-21 2.24993127e-21 2.24993127e-21 2.24993127e-21
      2.24993127e-21 2.24993127e-21 2.24993127e-21 2.24993127e-21
      2.24993127e-21 2.24993127e-21 2.24993127e-21 2.24993127e-21
      2.24993127e-21 2.24993127e-21 2.24993127e-21 2.24993127e-21
      2.24993127e-21 2.24993127e-21 2.24993127e-21 -1.82234035e-05
      -3.87288528e-05 -2.53206890e-05 -5.92469678e-06 0. 0. 0. 0. 0. 0.
      0. 0. 0. 0. 0. 0. 0. 0. -5.28520196e-08 -9.28894394e-07
      -9.63334742e-07 4.48165224e-07 7.69167556e-08 2.24993127e-21
      2.24993127e-21 2.24993127e-21 2.24993127e-21 2.24993127e-21
      2.24993127e-21 2.24993127e-21 2.24993127e-21 2.24993127e-21
      2.24993127e-21 2.24993127e-21 2.24993127e-21 2.24993127e-21
      2.24993127e-21 2.24993127e-21 2.24993127e-21 2.24993127e-21
      2.24993127e-21 2.24993127e-21 2.24993127e-21 2.24993127e-21
      2.24993127e-21 2.24993127e-21 2.24993127e-21 2.24993127e-21
      2.24993127e-21 -9.43765190e-06 -3.07678274e-05 -4.22552512e-05
      -3.39912549e-05 -1.20344093e-05 -1.27113191e-08 0. 0. 0. 0. 0. 0.
      0. 0. 0. 0. 0. 0. 0. -1.16718513e-06 -4.92282140e-07 0.
      5.72783335e-07 1.53833511e-07 2.24993127e-21 2.24993127e-21
      2.24993127e-21 2.24993127e-21 2.24993127e-21 2.24993127e-21
      2.24993127e-21 2.24993127e-21 2.24993127e-21 2.24993127e-21
      2.24993127e-21 2.24993127e-21 2.24993127e-21 2.24993127e-21
      2.24993127e-21 2.24993127e-21 2.24993127e-21 2.24993127e-21
      2.24993127e-21 2.24993127e-21 2.24993127e-21 2.24993127e-21
      2.24993127e-21 2.24993127e-21 2.24993127e-21 2.24993127e-21
      -1.40803668e-05 -3.68408000e-05 -4.26821352e-05 -4.12360423e-05
      -2.73133137e-05 6.43836529e-06 1.36596391e-05 1.80080806e-05
      1.80080806e-05 6.71055841e-06 -4.40433512e-09 1.87935435e-21
      1.87935435e-21 1.87935435e-21 1.87935435e-21 1.87935435e-21
      1.87935435e-21 1.87935435e-21 1.87935435e-21 5.14879105e-07 0. 0.
      9.54638892e-08 1.59412270e-08 2.24993127e-21 2.24993127e-21
      2.24993127e-21 2.24993127e-21 2.24993127e-21 2.24993127e-21
      2.24993127e-21 2.24993127e-21 2.24993127e-21 2.24993127e-21
      2.24993127e-21 2.24993127e-21 2.24993127e-21 2.24993127e-21
      2.24993127e-21 2.24993127e-21 2.24993127e-21 2.24993127e-21
      2.24993127e-21 2.24993127e-21 2.24993127e-21 2.24993127e-21
      2.24993127e-21 2.24993127e-21 2.24993127e-21 2.24993127e-21
      -1.40803668e-05 -3.68408000e-05 -4.26821352e-05 -4.26821352e-05
      -3.03522993e-05 -7.30166585e-06 2.24993127e-21 2.24993127e-21
      2.24993127e-21 2.24993127e-21 2.24993127e-21 2.24993127e-21
      2.24993127e-21 2.24993127e-21 2.24993127e-21 2.24993127e-21
      2.24993127e-21 2.24993127e-21 -6.54104440e-07 -4.16820782e-08 0.
      0. 1.30299576e-08 -7.87301957e-09 2.24993127e-21 2.24993127e-21
      2.24993127e-21 2.24993127e-21 2.24993127e-21 2.24993127e-21
      2.24993127e-21 2.24993127e-21 2.24993127e-21 2.24993127e-21
      2.24993127e-21 2.24993127e-21 2.24993127e-21 2.24993127e-21
      2.24993127e-21 2.24993127e-21 2.24993127e-21 2.24993127e-21
      2.24993127e-21 2.24993127e-21 2.24993127e-21 2.24993127e-21
      2.24993127e-21 2.24993127e-21 2.24993127e-21 2.24993127e-21
      -1.40803668e-05 -3.68408000e-05 -4.26821352e-05 -4.26821352e-05
      -3.03522993e-05 -7.30166585e-06 2.24993127e-21 2.24993127e-21
      2.24993127e-21 2.24993127e-21 2.24993127e-21 2.24993127e-21
      2.24993127e-21 2.24993127e-21 2.24993127e-21 2.24993127e-21
      2.24993127e-21 2.24993127e-21 -6.54104440e-07 -4.16820782e-08 0.
      0. 5.72783335e-07 1.53833511e-07 2.24993127e-21 2.24993127e-21
      2.24993127e-21 2.24993127e-21 2.24993127e-21 2.24993127e-21
      2.24993127e-21 2.24993127e-21 2.24993127e-21 2.24993127e-21
      2.24993127e-21 2.24993127e-21 2.24993127e-21 2.24993127e-21
      2.24993127e-21 2.24993127e-21 2.24993127e-21 2.24993127e-21
      2.24993127e-21 2.24993127e-21 2.24993127e-21 2.24993127e-21
      2.24993127e-21 2.24993127e-21 2.24993127e-21 2.24993127e-21
      -1.40803668e-05 -3.68408000e-05 -4.26821352e-05 -4.26821352e-05
      -3.03522993e-05 -7.30166585e-06 2.24993127e-21 2.24993127e-21
      2.24993127e-21 2.24993127e-21 2.24993127e-21 2.24993127e-21
      2.24993127e-21 2.24993127e-21 2.24993127e-21 2.24993127e-21
      2.24993127e-21 2.24993127e-21 -6.54104440e-07 -4.16820782e-08 0.
      0. 5.72783335e-07 1.53833511e-07 2.24993127e-21 2.24993127e-21
      2.24993127e-21 2.24993127e-21 2.24993127e-21 2.24993127e-21
      2.24993127e-21 2.24993127e-21 2.24993127e-21 2.24993127e-21
      2.24993127e-21 2.24993127e-21 2.24993127e-21 2.24993127e-21
      2.24993127e-21 2.24993127e-21 2.24993127e-21 2.24993127e-21
      2.24993127e-21 2.24993127e-21 2.24993127e-21 2.24993127e-21
      2.24993127e-21 2.24993127e-21 2.24993127e-21 2.24993127e-21
      -1.40803668e-05 -3.68408000e-05 -4.26821352e-05 -4.26821352e-05
      -3.03522993e-05 -7.30166585e-06 2.24993127e-21 2.24993127e-21
      2.24993127e-21 2.24993127e-21 2.24993127e-21 2.24993127e-21
      2.24993127e-21 2.24993127e-21 2.24993127e-21 2.24993127e-21
      2.24993127e-21 2.24993127e-21 -6.54104440e-07 -4.16820782e-08 0.
      0. 5.72783335e-07 1.53833511e-07 2.24993127e-21 2.24993127e-21
      2.24993127e-21 2.24993127e-21 2.24993127e-21 2.24993127e-21
      2.24993127e-21 2.24993127e-21 2.24993127e-21 2.24993127e-21
      2.24993127e-21 2.24993127e-21 2.24993127e-21 2.24993127e-21
      2.24993127e-21 2.24993127e-21 2.24993127e-21 2.24993127e-21
      2.24993127e-21 2.24993127e-21 2.24993127e-21 2.24993127e-21
      2.24993127e-21 2.24993127e-21 2.24993127e-21 2.24993127e-21
      -1.40803668e-05 -3.68408000e-05 -4.26821352e-05 -4.26821352e-05
      -3.03522993e-05 -7.30166585e-06 2.24993127e-21 2.24993127e-21
      2.24993127e-21 2.24993127e-21 2.24993127e-21 2.24993127e-21
      2.24993127e-21 2.24993127e-21 2.24993127e-21 2.24993127e-21
      2.24993127e-21 2.24993127e-21 -6.54104440e-07 -4.16820782e-08 0.
      0. 5.72783335e-07 1.53833511e-07 2.24993127e-21 2.24993127e-21
      2.24993127e-21 2.24993127e-21 2.24993127e-21 2.24993127e-21
      2.24993127e-21 2.24993127e-21 2.24993127e-21 2.24993127e-21
      2.24993127e-21 2.24993127e-21 2.24993127e-21 2.24993127e-21
      2.24993127e-21 2.24993127e-21 2.24993127e-21 2.24993127e-21
      2.24993127e-21 2.24993127e-21 2.24993127e-21 2.24993127e-21
      2.24993127e-21 2.24993127e-21 2.24993127e-21 2.24993127e-21
      -1.40803668e-05 -3.68408000e-05 -4.26821352e-05 -4.26821352e-05
      -3.03522993e-05 -7.30166585e-06 2.24993127e-21 2.24993127e-21
      2.24993127e-21 2.24993127e-21 2.24993127e-21 2.24993127e-21
      2.24993127e-21 2.24993127e-21 2.24993127e-21 2.24993127e-21
      2.24993127e-21 2.24993127e-21 8.14801979e-07 1.40938724e-07 0. 0.
      3.58402417e-07 9.82532740e-08 2.24993127e-21 2.24993127e-21
      2.24993127e-21 2.24993127e-21 2.24993127e-21 2.24993127e-21
      2.24993127e-21 2.24993127e-21 2.24993127e-21 2.24993127e-21
      2.24993127e-21 2.24993127e-21 2.24993127e-21 2.24993127e-21
      2.24993127e-21 2.24993127e-21 2.24993127e-21 2.24993127e-21
      2.24993127e-21 2.24993127e-21 2.24993127e-21 2.24993127e-21
      2.24993127e-21 2.24993127e-21 2.24993127e-21 2.24993127e-21
      -1.40803668e-05 -3.68408000e-05 -4.26821352e-05 -4.26821352e-05
      -3.03522993e-05 -7.30166585e-06 2.24993127e-21 2.24993127e-21
      2.24993127e-21 2.24993127e-21 2.24993127e-21 2.24993127e-21
      2.24993127e-21 2.24993127e-21 2.24993127e-21 2.24993127e-21
      2.24993127e-21 2.24993127e-21 8.14801979e-07 1.40938724e-07 0. 0.
      -7.13502288e-07 -2.11408079e-07 2.24993127e-21 2.24993127e-21
      2.24993127e-21 2.24993127e-21 2.24993127e-21 2.24993127e-21
      2.24993127e-21 2.24993127e-21 2.24993127e-21 2.24993127e-21
      2.24993127e-21 2.24993127e-21 2.24993127e-21 2.24993127e-21
      2.24993127e-21 2.24993127e-21 2.24993127e-21 2.24993127e-21
      2.24993127e-21 2.24993127e-21 2.24993127e-21 2.24993127e-21
      2.24993127e-21 2.24993127e-21 2.24993127e-21 2.24993127e-21
      -1.40803668e-05 -3.68408000e-05 -4.26821352e-05 -4.26821352e-05
      -3.03522993e-05 -7.30166585e-06 2.24993127e-21 2.24993127e-21
      2.24993127e-21 2.24993127e-21 2.24993127e-21 2.24993127e-21
      2.24993127e-21 2.24993127e-21 2.24993127e-21 2.24993127e-21
      2.24993127e-21 2.24993127e-21 8.14801979e-07 1.40938724e-07 0. 0.
      -7.13502288e-07 -2.11408079e-07 2.24993127e-21 2.24993127e-21
      2.24993127e-21 2.24993127e-21 2.24993127e-21 2.24993127e-21
      2.24993127e-21 2.24993127e-21 2.24993127e-21 2.24993127e-21
      2.24993127e-21 2.24993127e-21 2.24993127e-21 2.24993127e-21
      2.24993127e-21 2.24993127e-21 2.24993127e-21 2.24993127e-21
      2.24993127e-21 2.24993127e-21 2.24993127e-21 2.24993127e-21
      2.24993127e-21 2.24993127e-21 2.24993127e-21 2.24993127e-21
      -1.40803668e-05 -3.68408000e-05 -4.26821352e-05 -4.26821352e-05
      -3.03522993e-05 -7.30166585e-06 2.24993127e-21 2.24993127e-21
      2.24993127e-21 2.24993127e-21 2.24993127e-21 2.24993127e-21
      2.24993127e-21 2.24993127e-21 2.24993127e-21 2.24993127e-21
      2.24993127e-21 2.24993127e-21 8.14801979e-07 1.40938724e-07 0. 0.
      -7.13502288e-07 -2.11408079e-07 2.24993127e-21 2.24993127e-21
      2.24993127e-21 2.24993127e-21 2.24993127e-21 2.24993127e-21
      2.24993127e-21 2.24993127e-21 2.24993127e-21 2.24993127e-21
      2.24993127e-21 2.24993127e-21 2.24993127e-21 2.24993127e-21
      2.24993127e-21 2.24993127e-21 2.24993127e-21 2.24993127e-21
      2.24993127e-21 2.24993127e-21 2.24993127e-21 2.24993127e-21
      2.24993127e-21 2.24993127e-21 2.24993127e-21 2.24993127e-21
      -2.50328667e-05 -4.16781550e-05 -4.26821352e-05 -4.26821352e-05
      -2.81652865e-05 -5.91930939e-06 2.24993127e-21 2.24993127e-21
      2.24993127e-21 2.24993127e-21 2.24993127e-21 2.24993127e-21
      2.24993127e-21 2.24993127e-21 2.24993127e-21 2.24993127e-21
      2.24993127e-21 2.24993127e-21 1.71769074e-07 2.20216752e-08 0. 0.
      -7.13502288e-07 -2.11408079e-07 2.24993127e-21 2.24993127e-21
      2.24993127e-21 2.24993127e-21 2.24993127e-21 2.24993127e-21
      2.24993127e-21 2.24993127e-21 2.24993127e-21 2.24993127e-21
      2.24993127e-21 2.24993127e-21 2.24993127e-21 2.24993127e-21
      2.24993127e-21 2.24993127e-21 2.24993127e-21 2.24993127e-21
      2.24993127e-21 2.24993127e-21 2.24993127e-21 2.24993127e-21
      2.24993127e-21 2.24993127e-21 2.24993127e-21 -1.05793033e-05
      -3.24598004e-05 -4.26821352e-05 -4.26821352e-05 -4.12360423e-05
      -1.74518718e-05 2.24993127e-21 2.24993127e-21 2.24993127e-21
      2.24993127e-21 2.24993127e-21 2.24993127e-21 2.24993127e-21
      2.24993127e-21 2.24993127e-21 2.24993127e-21 2.24993127e-21
      2.24993127e-21 -4.91462231e-07 -2.03455627e-07 0. 0. 0.
      -1.20609620e-05 -3.65083292e-06 2.24993127e-21 2.24993127e-21
      2.24993127e-21 2.24993127e-21 2.24993127e-21 2.24993127e-21
      2.24993127e-21 2.24993127e-21 2.24993127e-21 2.24993127e-21
      2.24993127e-21 2.24993127e-21 2.24993127e-21 2.24993127e-21
      2.24993127e-21 2.24993127e-21 2.24993127e-21 2.24993127e-21
      2.24993127e-21 2.24993127e-21 2.24993127e-21 2.24993127e-21
      2.24993127e-21 2.24993127e-21 2.24993127e-21 -1.05793033e-05
      -3.24598004e-05 -4.26821352e-05 -4.26821352e-05 -3.38533646e-05
      -1.15913945e-05 2.24993127e-21 2.24993127e-21 2.24993127e-21
      2.24993127e-21 2.24993127e-21 2.24993127e-21 2.24993127e-21
      2.24993127e-21 2.24993127e-21 2.24993127e-21 2.24993127e-21
      2.24993127e-21 -4.91462231e-07 -2.03455627e-07 0. 0.
      -2.83040140e-06 -2.26301927e-06 2.24993127e-21 2.24993127e-21
      2.24993127e-21 2.24993127e-21 2.24993127e-21 2.24993127e-21
      2.24993127e-21 2.24993127e-21 2.24993127e-21 2.24993127e-21
      2.24993127e-21 2.24993127e-21 2.24993127e-21 2.24993127e-21
      2.24993127e-21 2.24993127e-21 2.24993127e-21 2.24993127e-21
      2.24993127e-21 2.24993127e-21 2.24993127e-21 2.24993127e-21
      2.24993127e-21 2.24993127e-21 2.24993127e-21 2.24993127e-21
      -1.05793033e-05 -3.24598004e-05 -4.26821352e-05 -4.26821352e-05
      -3.38533646e-05 -1.15913945e-05 2.24993127e-21 2.24993127e-21
      2.24993127e-21 2.24993127e-21 2.24993127e-21 2.24993127e-21
      2.24993127e-21 2.24993127e-21 2.24993127e-21 2.24993127e-21
      2.24993127e-21 2.24993127e-21 -4.91462231e-07 -2.03455627e-07 0.
      0. -4.00424415e-06 -3.18545722e-06 2.24993127e-21 2.24993127e-21
      2.24993127e-21 2.24993127e-21 2.24993127e-21 2.24993127e-21
      2.24993127e-21 2.24993127e-21 2.24993127e-21 2.24993127e-21
      2.24993127e-21 2.24993127e-21 2.24993127e-21 2.24993127e-21
      2.24993127e-21 2.24993127e-21 2.24993127e-21 2.24993127e-21
      2.24993127e-21 2.24993127e-21 2.24993127e-21 2.24993127e-21
      2.24993127e-21 2.24993127e-21 2.24993127e-21 2.24993127e-21
      -1.05793033e-05 -3.24598004e-05 -4.26821352e-05 -4.26821352e-05
      -3.38533646e-05 -1.15913945e-05 2.24993127e-21 2.24993127e-21
      2.24993127e-21 2.24993127e-21 2.24993127e-21 2.24993127e-21
      2.24993127e-21 2.24993127e-21 2.24993127e-21 2.24993127e-21
      2.24993127e-21 2.24993127e-21 -4.91462231e-07 -2.03455627e-07 0.
      0. 4.10141155e-07 3.15607053e-07 2.24993127e-21 2.24993127e-21
      2.24993127e-21 2.24993127e-21 2.24993127e-21 2.24993127e-21
      2.24993127e-21 2.24993127e-21 2.24993127e-21 2.24993127e-21
      2.24993127e-21 2.24993127e-21 2.24993127e-21 2.24993127e-21
      2.24993127e-21 2.24993127e-21 2.24993127e-21 2.24993127e-21
      2.24993127e-21 2.24993127e-21 2.24993127e-21 2.24993127e-21
      2.24993127e-21 2.24993127e-21 2.24993127e-21 2.24993127e-21
      -1.05793033e-05 -3.24598004e-05 -4.26821352e-05 -4.26821352e-05
      -3.38533646e-05 -1.15913945e-05 2.24993127e-21 2.24993127e-21
      2.24993127e-21 2.24993127e-21 2.24993127e-21 2.24993127e-21
      2.24993127e-21 2.24993127e-21 2.24993127e-21 2.24993127e-21
      2.24993127e-21 2.24993127e-21 -4.91462231e-07 -2.03455627e-07 0.
      0. 4.10141155e-07 3.15607053e-07 2.24993127e-21 2.24993127e-21
      2.24993127e-21 2.24993127e-21 2.24993127e-21 2.24993127e-21
      2.24993127e-21 2.24993127e-21 2.24993127e-21 2.24993127e-21
      2.24993127e-21 2.24993127e-21 2.24993127e-21 2.24993127e-21
      2.24993127e-21 2.24993127e-21 2.24993127e-21 2.24993127e-21
      2.24993127e-21 2.24993127e-21 2.24993127e-21 2.24993127e-21
      2.24993127e-21 2.24993127e-21 2.24993127e-21 2.24993127e-21
      -1.05793033e-05 -3.24598004e-05 -4.26821352e-05 -4.26821352e-05
      -3.38533646e-05 -1.15913945e-05 2.24993127e-21 2.24993127e-21
      2.24993127e-21 2.24993127e-21 2.24993127e-21 2.24993127e-21
      2.24993127e-21 2.24993127e-21 2.24993127e-21 2.24993127e-21
      2.24993127e-21 2.24993127e-21 -3.08841464e-07 -1.08175207e-07 0.
      0. 4.10141155e-07 3.15607053e-07 2.24993127e-21 2.24993127e-21
      2.24993127e-21 2.24993127e-21 2.24993127e-21 2.24993127e-21
      2.24993127e-21 2.24993127e-21 2.24993127e-21 2.24993127e-21
      2.24993127e-21 2.24993127e-21 2.24993127e-21 2.24993127e-21
      2.24993127e-21 2.24993127e-21 2.24993127e-21 2.24993127e-21
      2.24993127e-21 2.24993127e-21 2.24993127e-21 2.24993127e-21
      2.24993127e-21 2.24993127e-21 2.24993127e-21 2.24993127e-21
      -1.05793033e-05 -3.24598004e-05 -4.26821352e-05 -4.26821352e-05
      -3.38533646e-05 -1.15913945e-05 2.24993127e-21 2.24993127e-21
      2.24993127e-21 2.24993127e-21 2.24993127e-21 2.24993127e-21
      2.24993127e-21 2.24993127e-21 2.24993127e-21 2.24993127e-21
      2.24993127e-21 2.24993127e-21 6.12202598e-07 3.52346802e-07 0. 0.
      4.10141155e-07 3.15607053e-07 2.24993127e-21 2.24993127e-21
      2.24993127e-21 2.24993127e-21 2.24993127e-21 2.24993127e-21
      2.24993127e-21 2.24993127e-21 2.24993127e-21 2.24993127e-21
      2.24993127e-21 2.24993127e-21 2.24993127e-21 2.24993127e-21
      2.24993127e-21 2.24993127e-21 2.24993127e-21 2.24993127e-21
      2.24993127e-21 2.24993127e-21 2.24993127e-21 2.24993127e-21
      2.24993127e-21 2.24993127e-21 2.24993127e-21 2.24993127e-21
      -1.05793033e-05 -3.24598004e-05 -4.26821352e-05 -4.26821352e-05
      -3.02025310e-05 -5.84133295e-06 2.24993127e-21 2.24993127e-21
      2.24993127e-21 2.24993127e-21 2.24993127e-21 2.24993127e-21
      2.24993127e-21 2.24993127e-21 2.24993127e-21 2.24993127e-21
      2.24993127e-21 2.24993127e-21 6.43401776e-08 7.44455875e-08 0. 0.
      -5.03808515e-08 -5.75745673e-08 2.24993127e-21 2.24993127e-21
      2.24993127e-21 2.24993127e-21 2.24993127e-21 2.24993127e-21
      2.24993127e-21 2.24993127e-21 2.24993127e-21 2.24993127e-21
      2.24993127e-21 2.24993127e-21 2.24993127e-21 2.24993127e-21
      2.24993127e-21 2.24993127e-21 2.24993127e-21 2.24993127e-21
      2.24993127e-21 2.24993127e-21 2.24993127e-21 2.24993127e-21
      2.24993127e-21 2.24993127e-21 2.24993127e-21 2.24993127e-21
      -3.50106438e-06 -2.02880092e-05 -3.88487606e-05 -3.72643808e-05
      -2.59516105e-06 2.10711041e-05 2.84547568e-05 2.84547568e-05
      2.84547568e-05 2.84547568e-05 2.84547568e-05 1.72632499e-05
      1.67325143e-05 2.84547568e-05 2.84547568e-05 2.84547568e-05
      2.84547568e-05 2.84547568e-05 2.16152694e-05 1.56149781e-05
      1.91668732e-06 -2.02599409e-07 -5.94585231e-07 -1.40938724e-07
      2.24993127e-21 2.24993127e-21 2.24993127e-21 2.24993127e-21
      2.24993127e-21 2.24993127e-21 2.24993127e-21 2.24993127e-21
      2.24993127e-21 2.24993127e-21 2.24993127e-21 2.24993127e-21
      2.24993127e-21 2.24993127e-21 2.24993127e-21 2.24993127e-21
      2.24993127e-21 2.24993127e-21 2.24993127e-21 2.24993127e-21
      2.24993127e-21 2.24993127e-21 2.24993127e-21 2.24993127e-21
      2.24993127e-21 2.24993127e-21 2.24993127e-21 -2.35941297e-06
      -4.73837690e-06 1.25278293e-05 3.71819078e-05 4.08579363e-05
      4.26821352e-05 4.26821352e-05 4.26821352e-05 4.26821352e-05
      4.26821352e-05 3.98641278e-05 3.97091026e-05 4.26821352e-05
      4.26821352e-05 4.26821352e-05 4.26821352e-05 4.26821352e-05
      4.10129214e-05 2.82753717e-05 2.96055009e-06 -5.28520196e-08
      -1.05704039e-07 2.24993127e-21 2.24993127e-21 2.24993127e-21
      2.24993127e-21 2.24993127e-21 2.24993127e-21 2.24993127e-21
      2.24993127e-21 2.24993127e-21 2.24993127e-21 2.24993127e-21
      2.24993127e-21 2.24993127e-21 2.24993127e-21 2.24993127e-21
      2.24993127e-21 2.24993127e-21 2.24993127e-21 2.24993127e-21
      2.24993127e-21 2.24993127e-21 2.24993127e-21 2.24993127e-21
      2.24993127e-21 2.24993127e-21 2.24993127e-21 2.24993127e-21
      2.24993127e-21 -4.53958364e-07 2.83478494e-06 1.91020863e-05
      2.75785933e-05 4.26821352e-05 4.26821352e-05 4.26821352e-05
      4.26821352e-05 4.26821352e-05 4.26821352e-05 4.26821352e-05
      4.26821352e-05 4.26821352e-05 4.26821352e-05 4.26821352e-05
      4.26821352e-05 4.26821352e-05 4.08303022e-05 2.19422509e-05
      -3.99991904e-06 -2.92066647e-06 2.24993127e-21 2.24993127e-21
      2.24993127e-21 2.24993127e-21 2.24993127e-21 2.24993127e-21
      2.24993127e-21 2.24993127e-21 2.24993127e-21 2.24993127e-21
      2.24993127e-21 2.24993127e-21 2.24993127e-21 2.24993127e-21
      2.24993127e-21 2.24993127e-21 2.24993127e-21 2.24993127e-21
      2.24993127e-21 2.24993127e-21 2.24993127e-21 2.24993127e-21
      2.24993127e-21 2.24993127e-21 2.24993127e-21 2.24993127e-21
      2.24993127e-21 2.24993127e-21 2.50281118e-07 -1.59184674e-06
      2.93271142e-07 1.27472867e-05 1.77575494e-05 2.84547568e-05
      2.84547568e-05 2.84547568e-05 2.84547568e-05 2.84547568e-05
      2.84547568e-05 2.84547568e-05 2.84547568e-05 2.84547568e-05
      2.84547568e-05 2.84547568e-05 2.84547568e-05 2.84547568e-05
      1.65786660e-05 -1.71538632e-05 -3.96237956e-05 -2.41595117e-05
      -4.38099960e-06 2.24993127e-21 2.24993127e-21 2.24993127e-21
      2.24993127e-21 2.24993127e-21 2.24993127e-21 2.24993127e-21
      2.24993127e-21 2.24993127e-21 2.24993127e-21 2.24993127e-21
      2.24993127e-21 2.24993127e-21 2.24993127e-21 2.24993127e-21
      2.24993127e-21 2.24993127e-21 2.24993127e-21 2.24993127e-21
      2.24993127e-21 2.24993127e-21 2.24993127e-21 2.24993127e-21
      2.24993127e-21 2.24993127e-21 2.24993127e-21 -1.62642181e-07
      2.67246492e-07 3.30085754e-07 0. -2.41635439e-06 -4.99480029e-06
      2.24993127e-21 2.24993127e-21 2.24993127e-21 2.24993127e-21
      2.24993127e-21 2.24993127e-21 2.24993127e-21 2.24993127e-21
      2.24993127e-21 2.24993127e-21 2.24993127e-21 2.24993127e-21
      -3.50106438e-06 -2.21348491e-05 -3.98565899e-05 -4.26821352e-05
      -4.00182798e-05 -1.83794346e-05 2.24993127e-21 2.24993127e-21
      2.24993127e-21 2.24993127e-21 2.24993127e-21 2.24993127e-21
      2.24993127e-21 2.24993127e-21 2.24993127e-21 2.24993127e-21
      2.24993127e-21 2.24993127e-21 2.24993127e-21 2.24993127e-21
      2.24993127e-21 2.24993127e-21 2.24993127e-21 2.24993127e-21
      2.24993127e-21 2.24993127e-21 2.24993127e-21 2.24993127e-21
      2.24993127e-21 2.24993127e-21 2.24993127e-21 2.24993127e-21
      -3.28820079e-07 -2.20754757e-07 0. 0. -1.57914326e-06
      -3.16815817e-06 2.24993127e-21 2.24993127e-21 2.24993127e-21
      2.24993127e-21 2.24993127e-21 2.24993127e-21 2.24993127e-21
      2.24993127e-21 2.24993127e-21 2.24993127e-21 2.24993127e-21
      2.24993127e-21 -7.07823847e-06 -3.09994684e-05 -4.26821352e-05
      -4.26821352e-05 -4.26821352e-05 -2.36310316e-05 2.24993127e-21
      2.24993127e-21 2.24993127e-21 2.24993127e-21 2.24993127e-21
      2.24993127e-21 2.24993127e-21 2.24993127e-21 2.24993127e-21
      2.24993127e-21 2.24993127e-21 2.24993127e-21 2.24993127e-21
      2.24993127e-21 2.24993127e-21 2.24993127e-21 2.24993127e-21
      2.24993127e-21 2.24993127e-21 2.24993127e-21 2.24993127e-21
      2.24993127e-21 2.24993127e-21 2.24993127e-21 2.24993127e-21
      2.24993127e-21 2.82562610e-07 5.49428592e-07 0. 0. 2.47498974e-07
      3.32906183e-07 2.24993127e-21 2.24993127e-21 2.24993127e-21
      2.24993127e-21 2.24993127e-21 2.24993127e-21 2.24993127e-21
      2.24993127e-21 2.24993127e-21 2.24993127e-21 2.24993127e-21
      2.24993127e-21 -7.07823847e-06 -3.09994684e-05 -4.26821352e-05
      -4.26821352e-05 -3.82677499e-05 -1.48022600e-05 2.24993127e-21
      2.24993127e-21 2.24993127e-21 2.24993127e-21 2.24993127e-21
      2.24993127e-21 2.24993127e-21 2.24993127e-21 2.24993127e-21
      2.24993127e-21 2.24993127e-21 2.24993127e-21 2.24993127e-21
      2.24993127e-21 2.24993127e-21 2.24993127e-21 2.24993127e-21
      2.24993127e-21 2.24993127e-21 2.24993127e-21 2.24993127e-21
      2.24993127e-21 2.24993127e-21 2.24993127e-21 2.24993127e-21
      2.24993127e-21 4.09603160e-07 7.00289263e-07 0. 0. 1.52218561e-07
      1.50285402e-07 2.24993127e-21 2.24993127e-21 2.24993127e-21
      2.24993127e-21 2.24993127e-21 2.24993127e-21 2.24993127e-21
      2.24993127e-21 2.24993127e-21 2.24993127e-21 2.24993127e-21
      2.24993127e-21 -7.07823847e-06 -3.09994684e-05 -4.26821352e-05
      -4.26821352e-05 -3.73544281e-05 -1.30517283e-05 2.24993127e-21
      2.24993127e-21 2.24993127e-21 2.24993127e-21 2.24993127e-21
      2.24993127e-21 2.24993127e-21 2.24993127e-21 2.24993127e-21
      2.24993127e-21 2.24993127e-21 2.24993127e-21 2.24993127e-21
      2.24993127e-21 2.24993127e-21 2.24993127e-21 2.24993127e-21
      2.24993127e-21 2.24993127e-21 2.24993127e-21 2.24993127e-21
      2.24993127e-21 2.24993127e-21 2.24993127e-21 2.24993127e-21
      2.24993127e-21 4.09603160e-07 7.00289263e-07 0. 0. -3.08303441e-07
      -7.70758618e-07 2.24993127e-21 2.24993127e-21 2.24993127e-21
      2.24993127e-21 2.24993127e-21 2.24993127e-21 2.24993127e-21
      2.24993127e-21 2.24993127e-21 2.24993127e-21 2.24993127e-21
      2.24993127e-21 -7.07823847e-06 -3.09994684e-05 -4.26821352e-05
      -4.26821352e-05 -3.73544281e-05 -1.30517283e-05 2.24993127e-21
      2.24993127e-21 2.24993127e-21 2.24993127e-21 2.24993127e-21
      2.24993127e-21 2.24993127e-21 2.24993127e-21 2.24993127e-21
      2.24993127e-21 2.24993127e-21 2.24993127e-21 2.24993127e-21
      2.24993127e-21 2.24993127e-21 2.24993127e-21 2.24993127e-21
      2.24993127e-21 2.24993127e-21 2.24993127e-21 2.24993127e-21
      2.24993127e-21 2.24993127e-21 2.24993127e-21 2.24993127e-21
      2.24993127e-21 4.09603160e-07 7.00289263e-07 0. 0. -3.08303441e-07
      -7.70758618e-07 2.24993127e-21 2.24993127e-21 2.24993127e-21
      2.24993127e-21 2.24993127e-21 2.24993127e-21 2.24993127e-21
      2.24993127e-21 2.24993127e-21 2.24993127e-21 2.24993127e-21
      2.24993127e-21 -7.07823847e-06 -3.09994684e-05 -4.26821352e-05
      -4.26821352e-05 -3.73544281e-05 -1.30517283e-05 2.24993127e-21
      2.24993127e-21 2.24993127e-21 2.24993127e-21 2.24993127e-21
      2.24993127e-21 2.24993127e-21 2.24993127e-21 2.24993127e-21
      2.24993127e-21 2.24993127e-21 2.24993127e-21 2.24993127e-21
      2.24993127e-21 2.24993127e-21 2.24993127e-21 2.24993127e-21
      2.24993127e-21 2.24993127e-21 2.24993127e-21 2.24993127e-21
      2.24993127e-21 2.24993127e-21 2.24993127e-21 2.24993127e-21
      2.24993127e-21 4.09603160e-07 7.00289263e-07 0. 0. -3.08303441e-07
      -7.70758618e-07 2.24993127e-21 2.24993127e-21 2.24993127e-21
      2.24993127e-21 2.24993127e-21 2.24993127e-21 2.24993127e-21
      2.24993127e-21 2.24993127e-21 2.24993127e-21 2.24993127e-21
      2.24993127e-21 -7.07823847e-06 -3.09994684e-05 -4.26821352e-05
      -4.26821352e-05 -3.73544281e-05 -1.30517283e-05 2.24993127e-21
      2.24993127e-21 2.24993127e-21 2.24993127e-21 2.24993127e-21
      2.24993127e-21 2.24993127e-21 2.24993127e-21 2.24993127e-21
      2.24993127e-21 2.24993127e-21 2.24993127e-21 2.24993127e-21
      2.24993127e-21 2.24993127e-21 2.24993127e-21 2.24993127e-21
      2.24993127e-21 2.24993127e-21 2.24993127e-21 2.24993127e-21
      2.24993127e-21 2.24993127e-21 2.24993127e-21 2.24993127e-21
      2.24993127e-21 4.09603160e-07 7.00289263e-07 0. 0. -3.08303441e-07
      -7.70758618e-07 2.24993127e-21 2.24993127e-21 2.24993127e-21
      2.24993127e-21 2.24993127e-21 2.24993127e-21 2.24993127e-21
      2.24993127e-21 2.24993127e-21 2.24993127e-21 2.24993127e-21
      2.24993127e-21 -7.07823847e-06 -3.09994684e-05 -4.26821352e-05
      -4.26821352e-05 -3.73544281e-05 -1.30517283e-05 2.24993127e-21
      2.24993127e-21 2.24993127e-21 2.24993127e-21 2.24993127e-21
      2.24993127e-21 2.24993127e-21 2.24993127e-21 2.24993127e-21
      2.24993127e-21 2.24993127e-21 2.24993127e-21 2.24993127e-21
      2.24993127e-21 2.24993127e-21 2.24993127e-21 2.24993127e-21
      2.24993127e-21 2.24993127e-21 2.24993127e-21 2.24993127e-21
      2.24993127e-21 2.24993127e-21 2.24993127e-21 2.24993127e-21
      2.24993127e-21 4.21523595e-07 7.39030668e-07 0. 0. -3.08303441e-07
      -7.70758618e-07 2.24993127e-21 2.24993127e-21 2.24993127e-21
      2.24993127e-21 2.24993127e-21 2.24993127e-21 2.24993127e-21
      2.24993127e-21 2.24993127e-21 2.24993127e-21 2.24993127e-21
      2.24993127e-21 -7.07823847e-06 -3.09994684e-05 -4.26821352e-05
      -4.26821352e-05 -3.73544281e-05 -1.30517283e-05 2.24993127e-21
      2.24993127e-21 2.24993127e-21 2.24993127e-21 2.24993127e-21
      2.24993127e-21 2.24993127e-21 2.24993127e-21 2.24993127e-21
      2.24993127e-21 2.24993127e-21 2.24993127e-21 2.24993127e-21
      2.24993127e-21 2.24993127e-21 2.24993127e-21 2.24993127e-21
      2.24993127e-21 2.24993127e-21 2.24993127e-21 2.24993127e-21
      2.24993127e-21 2.24993127e-21 2.24993127e-21 2.24993127e-21
      2.24993127e-21 3.86815515e-07 6.24805182e-07 0. 0. -2.59855767e-07
      -5.15307192e-07 2.24993127e-21 2.24993127e-21 2.24993127e-21
      2.24993127e-21 2.24993127e-21 2.24993127e-21 2.24993127e-21
      2.24993127e-21 2.24993127e-21 2.24993127e-21 2.24993127e-21
      2.24993127e-21 -9.54255120e-06 -3.49241127e-05 -4.26821352e-05
      -4.26821352e-05 -3.73544281e-05 -1.30517283e-05 2.24993127e-21
      2.24993127e-21 2.24993127e-21 2.24993127e-21 2.24993127e-21
      2.24993127e-21 2.24993127e-21 2.24993127e-21 2.24993127e-21
      2.24993127e-21 2.24993127e-21 2.24993127e-21 2.24993127e-21
      2.24993127e-21 2.24993127e-21 2.24993127e-21 2.24993127e-21
      2.24993127e-21 2.24993127e-21 2.24993127e-21 2.24993127e-21
      2.24993127e-21 2.24993127e-21 2.24993127e-21 2.24993127e-21
      2.24993127e-21 1.98195082e-07 0. 0. 0. -1.67364732e-07
      2.24993127e-21 2.24993127e-21 2.24993127e-21 2.24993127e-21
      2.24993127e-21 2.24993127e-21 2.24993127e-21 2.24993127e-21
      2.24993127e-21 2.24993127e-21 2.24993127e-21 2.24993127e-21
      2.24993127e-21 -1.43799043e-05 -4.26821352e-05 -4.26821352e-05
      -4.26821352e-05 -3.44337604e-05 -6.57149940e-06 2.24993127e-21
      2.24993127e-21 2.24993127e-21 2.24993127e-21 2.24993127e-21
      2.24993127e-21 2.24993127e-21 2.24993127e-21 2.24993127e-21
      2.24993127e-21 2.24993127e-21 2.24993127e-21 2.24993127e-21
      2.24993127e-21 2.24993127e-21 2.24993127e-21 2.24993127e-21
      2.24993127e-21 2.24993127e-21 2.24993127e-21 2.24993127e-21
      2.24993127e-21 2.24993127e-21 2.24993127e-21 2.24993127e-21
      -1.09606688e-07 -1.83660489e-07 0. 0. 5.30354960e-08
      2.67526332e-07 2.24993127e-21 2.24993127e-21 2.24993127e-21
      2.24993127e-21 2.24993127e-21 2.24993127e-21 2.24993127e-21
      2.24993127e-21 2.24993127e-21 2.24993127e-21 2.24993127e-21
      2.24993127e-21 2.24993127e-21 -1.43799043e-05 -4.26821352e-05
      -4.26821352e-05 -4.26821352e-05 -3.15130965e-05 2.24993127e-21
      2.24993127e-21 2.24993127e-21 2.24993127e-21 2.24993127e-21
      2.24993127e-21 2.24993127e-21 2.24993127e-21 2.24993127e-21
      2.24993127e-21 2.24993127e-21 2.24993127e-21 2.24993127e-21
      2.24993127e-21 2.24993127e-21 2.24993127e-21 2.24993127e-21
      2.24993127e-21 2.24993127e-21 2.24993127e-21 2.24993127e-21
      2.24993127e-21 2.24993127e-21 2.24993127e-21 2.24993127e-21
      2.24993127e-21 -1.62642181e-07 -3.74588268e-07 0. 0.
      8.13210903e-08 4.86739737e-07 2.24993127e-21 2.24993127e-21
      2.24993127e-21 2.24993127e-21 2.24993127e-21 2.24993127e-21
      2.24993127e-21 2.24993127e-21 2.24993127e-21 2.24993127e-21
      2.24993127e-21 2.24993127e-21 -2.96829353e-06 -2.46547679e-05
      -4.26821352e-05 -4.26821352e-05 -4.12360423e-05 -1.97921399e-05
      2.24993127e-21 2.24993127e-21 2.24993127e-21 2.24993127e-21
      2.24993127e-21 2.24993127e-21 2.24993127e-21 2.24993127e-21
      2.24993127e-21 2.24993127e-21 2.24993127e-21 2.24993127e-21
      2.24993127e-21 2.24993127e-21 2.24993127e-21 2.24993127e-21
      2.24993127e-21 2.24993127e-21 2.24993127e-21 2.24993127e-21
      2.24993127e-21 2.24993127e-21 2.24993127e-21 2.24993127e-21
      2.24993127e-21 2.24993127e-21 -9.91219054e-08 -1.60207335e-07 0.
      0. 4.95609527e-08 2.48538669e-07 2.24993127e-21 2.24993127e-21
      2.24993127e-21 2.24993127e-21 2.24993127e-21 2.24993127e-21
      2.24993127e-21 2.24993127e-21 2.24993127e-21 2.24993127e-21
      2.24993127e-21 2.24993127e-21 -3.50106438e-06 -2.67097403e-05
      -4.26821352e-05 -4.26821352e-05 -4.09316017e-05 -1.74327270e-05
      2.24993127e-21 2.24993127e-21 2.24993127e-21 2.24993127e-21
      2.24993127e-21 2.24993127e-21 2.24993127e-21 2.24993127e-21
      2.24993127e-21 2.24993127e-21 2.24993127e-21 2.24993127e-21
      2.24993127e-21 2.24993127e-21 2.24993127e-21 2.24993127e-21
      2.24993127e-21 2.24993127e-21 2.24993127e-21 2.24993127e-21
      2.24993127e-21 2.24993127e-21 2.24993127e-21 2.24993127e-21
      2.24993127e-21 2.24993127e-21 2.02599409e-07 9.11697384e-07 0. 0.
      -1.01299705e-07 -9.82166739e-07 2.24993127e-21 2.24993127e-21
      2.24993127e-21 2.24993127e-21 2.24993127e-21 2.24993127e-21
      2.24993127e-21 2.24993127e-21 2.24993127e-21 2.24993127e-21
      2.24993127e-21 2.24993127e-21 -3.50106438e-06 -2.67097403e-05
      -4.26821352e-05 -4.26821352e-05 -4.09316017e-05 -1.74327270e-05
      2.24993127e-21 2.24993127e-21 2.24993127e-21 2.24993127e-21
      2.24993127e-21 2.24993127e-21 2.24993127e-21 2.24993127e-21
      2.24993127e-21 2.24993127e-21 2.24993127e-21 2.24993127e-21
      2.24993127e-21 2.24993127e-21 2.24993127e-21 2.24993127e-21
      2.24993127e-21 2.24993127e-21 2.24993127e-21 2.24993127e-21
      2.24993127e-21 2.24993127e-21 2.24993127e-21 2.24993127e-21
      2.24993127e-21 2.24993127e-21 2.02599409e-07 9.11697384e-07 0. 0.
      -1.01299705e-07 -9.82166739e-07 2.24993127e-21 2.24993127e-21
      2.24993127e-21 2.24993127e-21 2.24993127e-21 2.24993127e-21
      2.24993127e-21 2.24993127e-21 2.24993127e-21 2.24993127e-21
      2.24993127e-21 2.24993127e-21 -3.50106438e-06 -2.67097403e-05
      -4.26821352e-05 -4.26821352e-05 -4.09316017e-05 -1.74327270e-05
      2.24993127e-21 2.24993127e-21 2.24993127e-21 2.24993127e-21
      2.24993127e-21 2.24993127e-21 2.24993127e-21 2.24993127e-21
      2.24993127e-21 2.24993127e-21 2.24993127e-21 2.24993127e-21
      2.24993127e-21 2.24993127e-21 2.24993127e-21 2.24993127e-21
      2.24993127e-21 2.24993127e-21 2.24993127e-21 2.24993127e-21
      2.24993127e-21 2.24993127e-21 2.24993127e-21 2.24993127e-21
      2.24993127e-21 2.24993127e-21 2.02599409e-07 9.11697384e-07 0. 0.
      -1.01299705e-07 -9.82166739e-07 2.24993127e-21 2.24993127e-21
      2.24993127e-21 2.24993127e-21 2.24993127e-21 2.24993127e-21
      2.24993127e-21 2.24993127e-21 2.24993127e-21 2.24993127e-21
      2.24993127e-21 2.24993127e-21 -3.50106438e-06 -2.67097403e-05
      -4.26821352e-05 -4.26821352e-05 -4.09316017e-05 -1.74327270e-05
      2.24993127e-21 2.24993127e-21 2.24993127e-21 2.24993127e-21
      2.24993127e-21 2.24993127e-21 2.24993127e-21 2.24993127e-21
      2.24993127e-21 2.24993127e-21 2.24993127e-21 2.24993127e-21
      2.24993127e-21 2.24993127e-21 2.24993127e-21 2.24993127e-21
      2.24993127e-21 2.24993127e-21 2.24993127e-21 2.24993127e-21
      2.24993127e-21 2.24993127e-21 2.24993127e-21 2.24993127e-21
      2.24993127e-21 2.24993127e-21 2.02599409e-07 9.11697384e-07 0. 0.
      -1.01299705e-07 -9.82166739e-07 2.24993127e-21 2.24993127e-21
      2.24993127e-21 2.24993127e-21 2.24993127e-21 2.24993127e-21
      2.24993127e-21 2.24993127e-21 2.24993127e-21 2.24993127e-21
      2.24993127e-21 2.24993127e-21 -3.50106438e-06 -2.67097403e-05
      -4.26821352e-05 -4.26821352e-05 -4.09316017e-05 -1.74327270e-05
      2.24993127e-21 2.24993127e-21 2.24993127e-21 2.24993127e-21
      2.24993127e-21 2.24993127e-21 2.24993127e-21 2.24993127e-21
      2.24993127e-21 2.24993127e-21 2.24993127e-21 2.24993127e-21
      2.24993127e-21 2.24993127e-21 2.24993127e-21 2.24993127e-21
      2.24993127e-21 2.24993127e-21 2.24993127e-21 2.24993127e-21
      2.24993127e-21 2.24993127e-21 2.24993127e-21 2.24993127e-21
      2.24993127e-21 2.24993127e-21 2.02599409e-07 9.11697384e-07 0. 0.
      -3.44082281e-07 9.68953699e-08 1.87935435e-21 1.87935435e-21
      1.87935435e-21 1.87935435e-21 1.87935435e-21 1.87935435e-21
      1.87935435e-21 -4.40433512e-09 1.87935435e-21 1.87935435e-21
      1.87935435e-21 1.87935435e-21 -2.86389786e-06 -2.33815917e-05
      -4.07654479e-05 -4.26821352e-05 -4.09316017e-05 -1.74327270e-05
      2.24993127e-21 2.24993127e-21 2.24993127e-21 2.24993127e-21
      2.24993127e-21 2.24993127e-21 2.24993127e-21 2.24993127e-21
      2.24993127e-21 2.24993127e-21 2.24993127e-21 2.24993127e-21
      2.24993127e-21 2.24993127e-21 2.24993127e-21 2.24993127e-21
      2.24993127e-21 2.24993127e-21 2.24993127e-21 2.24993127e-21
      2.24993127e-21 2.24993127e-21 2.24993127e-21 2.24993127e-21
      2.24993127e-21 2.24993127e-21 2.02599409e-07 9.11697384e-07 0.
      -2.73068764e-07 -1.56296630e-06 5.36272523e-07 0. 0. 0. 0. 0. 0.
      0. 0. 0. 0. 0. 0. 1.09606688e-07 -4.26700262e-06 -2.79108990e-05
      -4.26821352e-05 -4.09316017e-05 -1.74327270e-05 2.24993127e-21
      2.24993127e-21 2.24993127e-21 2.24993127e-21 2.24993127e-21
      2.24993127e-21 2.24993127e-21 2.24993127e-21 2.24993127e-21
      2.24993127e-21 2.24993127e-21 2.24993127e-21 2.24993127e-21
      2.24993127e-21 2.24993127e-21 2.24993127e-21 2.24993127e-21
      2.24993127e-21 2.24993127e-21 2.24993127e-21 2.24993127e-21
      2.24993127e-21 2.24993127e-21 2.24993127e-21 2.24993127e-21
      2.24993127e-21 1.01299705e-07 6.60650244e-07 1.70262211e-07
      -1.53061569e-06 -1.88391016e-06 -1.14441129e-07 0. 0. 0. 0. 0. 0.
      0. 0. 0. 0. 0. 0. 0. 1.62642181e-07 -1.59980282e-05
      -3.84108680e-05 -3.21155640e-05 -8.76199920e-06 2.24993127e-21
      2.24993127e-21 2.24993127e-21 2.24993127e-21 2.24993127e-21
      2.24993127e-21 2.24993127e-21 2.24993127e-21 2.24993127e-21
      2.24993127e-21 2.24993127e-21 2.24993127e-21 2.24993127e-21
      2.24993127e-21 2.24993127e-21 2.24993127e-21 2.24993127e-21
      2.24993127e-21 2.24993127e-21 2.24993127e-21 2.24993127e-21
      2.24993127e-21 2.24993127e-21 2.24993127e-21 2.24993127e-21
      2.24993127e-21 2.24993127e-21 1.36534382e-07 1.13774171e-07
      -2.02938239e-07 -1.29731035e-07 0. 0. 0. 0. 0. 0. 0. 0. 0. 0. 0.
      0. 0. 0. 0. 3.73981652e-06 -7.87931367e-06 -7.84570875e-06
      2.24993127e-21 2.24993127e-21 2.24993127e-21 2.24993127e-21
      2.24993127e-21 2.24993127e-21 2.24993127e-21 2.24993127e-21
      2.24993127e-21 2.24993127e-21 2.24993127e-21 2.24993127e-21
      2.24993127e-21 2.24993127e-21 2.24993127e-21 2.24993127e-21
      2.24993127e-21 2.24993127e-21 2.24993127e-21 2.24993127e-21
      2.24993127e-21 2.24993127e-21 2.24993127e-21 2.24993127e-21
      2.24993127e-21 2.24993127e-21 2.24993127e-21 2.24993127e-21
      2.24993127e-21 2.24993127e-21 1.36534382e-07 4.40433503e-08
      1.87935435e-21 1.87935435e-21 1.87935435e-21 1.87935435e-21
      1.87935435e-21 1.87935435e-21 1.87935435e-21 1.87935435e-21
      -4.40433512e-09 1.87935435e-21 1.87935435e-21 1.87935435e-21
      1.87935435e-21 1.87935435e-21 1.87935435e-21 1.82664223e-06
      9.08916775e-07 2.24993127e-21 2.24993127e-21 2.24993127e-21
      2.24993127e-21 2.24993127e-21 2.24993127e-21 2.24993127e-21
      2.24993127e-21 2.24993127e-21 2.24993127e-21 2.24993127e-21
      2.24993127e-21 2.24993127e-21 2.24993127e-21 2.24993127e-21
      2.24993127e-21 2.24993127e-21</_>
    <_>
      1.01643954e-20 1.01643954e-20 1.01643954e-20 1.01643954e-20
      1.01643954e-20 1.01643954e-20 1.01643954e-20 1.01643954e-20
      1.01643954e-20 1.01643954e-20 1.01643954e-20 1.01643954e-20
      1.01643954e-20 1.01643954e-20 1.01643954e-20 1.01643954e-20
      3.93905839e-06 9.77121090e-07 5.08219768e-21 5.08219768e-21
      5.08219768e-21 5.08219768e-21 5.08219768e-21 5.08219768e-21
      1.21699301e-07 5.08219768e-21 5.08219768e-21 5.08219768e-21
      5.08219768e-21 5.08219768e-21 5.08219768e-21 5.08219768e-21
      5.08219768e-21 -1.82725285e-06 -1.04226251e-06 1.01643954e-20
      1.01643954e-20 1.01643954e-20 1.01643954e-20 1.01643954e-20
      1.01643954e-20 1.01643954e-20 1.01643954e-20 1.01643954e-20
      1.01643954e-20 1.01643954e-20 1.01643954e-20 1.01643954e-20
      1.01643954e-20 1.01643954e-20 1.01643954e-20 1.01643954e-20
      1.01643954e-20 1.01643954e-20 1.01643954e-20 1.01643954e-20
      1.01643954e-20 1.01643954e-20 1.01643954e-20 1.01643954e-20
      1.01643954e-20 1.01643954e-20 1.01643954e-20 1.01643954e-20
      1.01643954e-20 -9.37084587e-06 1.43112456e-05 3.81077234e-06 0. 0.
      0. 0. 0. 0. 0. 0. 0. 0. 0. 0. 0. 0. 0. -1.03138664e-05
      -2.97774500e-06 -3.77376045e-06 -1.04226251e-06 1.01643954e-20
      1.01643954e-20 1.01643954e-20 1.01643954e-20 1.01643954e-20
      1.01643954e-20 1.01643954e-20 1.01643954e-20 1.01643954e-20
      1.01643954e-20 1.01643954e-20 1.01643954e-20 1.01643954e-20
      1.01643954e-20 1.01643954e-20 1.01643954e-20 1.01643954e-20
      1.01643954e-20 1.01643954e-20 1.01643954e-20 1.01643954e-20
      1.01643954e-20 1.01643954e-20 1.01643954e-20 1.01643954e-20
      1.01643954e-20 1.01643954e-20 1.01643954e-20 -2.87809507e-05
      -2.25106578e-05 0. 0. 0. 0. 0. 0. 0. 0. 0. 0. 0. 0. 0. 0. 0. 0.
      -5.01894829e-06 1.62699257e-06 -5.64435504e-06 -8.05837044e-06
      -7.81696883e-07 1.01643954e-20 1.01643954e-20 1.01643954e-20
      1.01643954e-20 1.01643954e-20 1.01643954e-20 1.01643954e-20
      1.01643954e-20 1.01643954e-20 1.01643954e-20 1.01643954e-20
      1.01643954e-20 1.01643954e-20 1.01643954e-20 1.01643954e-20
      1.01643954e-20 1.01643954e-20 1.01643954e-20 1.01643954e-20
      1.01643954e-20 1.01643954e-20 1.01643954e-20 1.01643954e-20
      1.01643954e-20 1.01643954e-20 1.01643954e-20 -1.50907126e-05
      -3.45606823e-05 -3.92044712e-05 -1.25354945e-05 1.03138664e-05
      1.72624732e-06 0. 0. 0. 0. 0. 0. 0. 0. 0. 0. 0. 0. 0. 0. 0. 0.
      -1.29899536e-05 -1.56339377e-06 1.01643954e-20 1.01643954e-20
      1.01643954e-20 1.01643954e-20 1.01643954e-20 1.01643954e-20
      1.01643954e-20 1.01643954e-20 1.01643954e-20 1.01643954e-20
      1.01643954e-20 1.01643954e-20 1.01643954e-20 1.01643954e-20
      1.01643954e-20 1.01643954e-20 1.01643954e-20 1.01643954e-20
      1.01643954e-20 1.01643954e-20 1.01643954e-20 1.01643954e-20
      1.01643954e-20 1.01643954e-20 1.01643954e-20 1.01643954e-20
      -2.25143704e-05 -3.72543254e-05 -3.93388509e-05 -3.59466721e-05
      -1.36446615e-05 7.81528615e-06 6.30101249e-06 5.08219768e-21
      5.08219768e-21 5.08219768e-21 1.21699301e-07 5.08219768e-21
      5.08219768e-21 5.08219768e-21 5.08219768e-21 5.08219768e-21
      5.08219768e-21 5.08219768e-21 5.39944995e-06 8.79385698e-06 0. 0.
      -2.94193596e-05 -6.30966633e-06 1.01643954e-20 1.01643954e-20
      1.01643954e-20 1.01643954e-20 1.01643954e-20 1.01643954e-20
      1.01643954e-20 1.01643954e-20 1.01643954e-20 1.01643954e-20
      1.01643954e-20 1.01643954e-20 1.01643954e-20 1.01643954e-20
      1.01643954e-20 1.01643954e-20 1.01643954e-20 1.01643954e-20
      1.01643954e-20 1.01643954e-20 1.01643954e-20 1.01643954e-20
      1.01643954e-20 1.01643954e-20 1.01643954e-20 1.01643954e-20
      -2.25143704e-05 -3.72543254e-05 -3.93388509e-05 -3.93388509e-05
      -1.96235633e-05 -2.60565639e-06 1.01643954e-20 1.01643954e-20
      1.01643954e-20 1.01643954e-20 1.01643954e-20 1.01643954e-20
      1.01643954e-20 1.01643954e-20 1.01643954e-20 1.01643954e-20
      1.01643954e-20 1.01643954e-20 1.68244806e-05 1.04226251e-06 0. 0.
      -2.94193596e-05 -6.30966633e-06 1.01643954e-20 1.01643954e-20
      1.01643954e-20 1.01643954e-20 1.01643954e-20 1.01643954e-20
      1.01643954e-20 1.01643954e-20 1.01643954e-20 1.01643954e-20
      1.01643954e-20 1.01643954e-20 1.01643954e-20 1.01643954e-20
      1.01643954e-20 1.01643954e-20 1.01643954e-20 1.01643954e-20
      1.01643954e-20 1.01643954e-20 1.01643954e-20 1.01643954e-20
      1.01643954e-20 1.01643954e-20 1.01643954e-20 1.01643954e-20
      -2.25143704e-05 -3.72543254e-05 -3.93388509e-05 -3.93388509e-05
      -1.96235633e-05 -2.60565639e-06 1.01643954e-20 1.01643954e-20
      1.01643954e-20 1.01643954e-20 1.01643954e-20 1.01643954e-20
      1.01643954e-20 1.01643954e-20 1.01643954e-20 1.01643954e-20
      1.01643954e-20 1.01643954e-20 1.68244806e-05 1.04226251e-06 0. 0.
      -1.29899536e-05 -1.56339377e-06 1.01643954e-20 1.01643954e-20
      1.01643954e-20 1.01643954e-20 1.01643954e-20 1.01643954e-20
      1.01643954e-20 1.01643954e-20 1.01643954e-20 1.01643954e-20
      1.01643954e-20 1.01643954e-20 1.01643954e-20 1.01643954e-20
      1.01643954e-20 1.01643954e-20 1.01643954e-20 1.01643954e-20
      1.01643954e-20 1.01643954e-20 1.01643954e-20 1.01643954e-20
      1.01643954e-20 1.01643954e-20 1.01643954e-20 1.01643954e-20
      -2.25143704e-05 -3.72543254e-05 -3.93388509e-05 -3.93388509e-05
      -1.96235633e-05 -2.60565639e-06 1.01643954e-20 1.01643954e-20
      1.01643954e-20 1.01643954e-20 1.01643954e-20 1.01643954e-20
      1.01643954e-20 1.01643954e-20 1.01643954e-20 1.01643954e-20
      1.01643954e-20 1.01643954e-20 1.68244806e-05 1.04226251e-06 0. 0.
      -1.29899536e-05 -1.56339377e-06 1.01643954e-20 1.01643954e-20
      1.01643954e-20 1.01643954e-20 1.01643954e-20 1.01643954e-20
      1.01643954e-20 1.01643954e-20 1.01643954e-20 1.01643954e-20
      1.01643954e-20 1.01643954e-20 1.01643954e-20 1.01643954e-20
      1.01643954e-20 1.01643954e-20 1.01643954e-20 1.01643954e-20
      1.01643954e-20 1.01643954e-20 1.01643954e-20 1.01643954e-20
      1.01643954e-20 1.01643954e-20 1.01643954e-20 1.01643954e-20
      -2.25143704e-05 -3.72543254e-05 -3.93388509e-05 -3.93388509e-05
      -1.96235633e-05 -2.60565639e-06 1.01643954e-20 1.01643954e-20
      1.01643954e-20 1.01643954e-20 1.01643954e-20 1.01643954e-20
      1.01643954e-20 1.01643954e-20 1.01643954e-20 1.01643954e-20
      1.01643954e-20 1.01643954e-20 1.68244806e-05 1.04226251e-06 0. 0.
      -1.29899536e-05 -1.56339377e-06 1.01643954e-20 1.01643954e-20
      1.01643954e-20 1.01643954e-20 1.01643954e-20 1.01643954e-20
      1.01643954e-20 1.01643954e-20 1.01643954e-20 1.01643954e-20
      1.01643954e-20 1.01643954e-20 1.01643954e-20 1.01643954e-20
      1.01643954e-20 1.01643954e-20 1.01643954e-20 1.01643954e-20
      1.01643954e-20 1.01643954e-20 1.01643954e-20 1.01643954e-20
      1.01643954e-20 1.01643954e-20 1.01643954e-20 1.01643954e-20
      -2.25143704e-05 -3.72543254e-05 -3.93388509e-05 -3.93388509e-05
      -1.96235633e-05 -2.60565639e-06 1.01643954e-20 1.01643954e-20
      1.01643954e-20 1.01643954e-20 1.01643954e-20 1.01643954e-20
      1.01643954e-20 1.01643954e-20 1.01643954e-20 1.01643954e-20
      1.01643954e-20 1.01643954e-20 1.68244806e-05 1.04226251e-06 0. 0.
      -1.29899536e-05 -1.56339377e-06 1.01643954e-20 1.01643954e-20
      1.01643954e-20 1.01643954e-20 1.01643954e-20 1.01643954e-20
      1.01643954e-20 1.01643954e-20 1.01643954e-20 1.01643954e-20
      1.01643954e-20 1.01643954e-20 1.01643954e-20 1.01643954e-20
      1.01643954e-20 1.01643954e-20 1.01643954e-20 1.01643954e-20
      1.01643954e-20 1.01643954e-20 1.01643954e-20 1.01643954e-20
      1.01643954e-20 1.01643954e-20 1.01643954e-20 1.01643954e-20
      -2.25143704e-05 -3.72543254e-05 -3.93388509e-05 -3.93388509e-05
      -1.96235633e-05 -2.60565639e-06 1.01643954e-20 1.01643954e-20
      1.01643954e-20 1.01643954e-20 1.01643954e-20 1.01643954e-20
      1.01643954e-20 1.01643954e-20 1.01643954e-20 1.01643954e-20
      1.01643954e-20 1.01643954e-20 1.68244806e-05 1.04226251e-06 0. 0.
      -1.29899536e-05 -1.56339377e-06 1.01643954e-20 1.01643954e-20
      1.01643954e-20 1.01643954e-20 1.01643954e-20 1.01643954e-20
      1.01643954e-20 1.01643954e-20 1.01643954e-20 1.01643954e-20
      1.01643954e-20 1.01643954e-20 1.01643954e-20 1.01643954e-20
      1.01643954e-20 1.01643954e-20 1.01643954e-20 1.01643954e-20
      1.01643954e-20 1.01643954e-20 1.01643954e-20 1.01643954e-20
      1.01643954e-20 1.01643954e-20 1.01643954e-20 1.01643954e-20
      -2.25143704e-05 -3.72543254e-05 -3.93388509e-05 -3.93388509e-05
      -1.96235633e-05 -2.60565639e-06 1.01643954e-20 1.01643954e-20
      1.01643954e-20 1.01643954e-20 1.01643954e-20 1.01643954e-20
      1.01643954e-20 1.01643954e-20 1.01643954e-20 1.01643954e-20
      1.01643954e-20 1.01643954e-20 1.68244806e-05 1.04226251e-06 0. 0.
      -1.29899536e-05 -1.56339377e-06 1.01643954e-20 1.01643954e-20
      1.01643954e-20 1.01643954e-20 1.01643954e-20 1.01643954e-20
      1.01643954e-20 1.01643954e-20 1.01643954e-20 1.01643954e-20
      1.01643954e-20 1.01643954e-20 1.01643954e-20 1.01643954e-20
      1.01643954e-20 1.01643954e-20 1.01643954e-20 1.01643954e-20
      1.01643954e-20 1.01643954e-20 1.01643954e-20 1.01643954e-20
      1.01643954e-20 1.01643954e-20 1.01643954e-20 1.01643954e-20
      -2.25143704e-05 -3.72543254e-05 -3.93388509e-05 -3.93388509e-05
      -1.96235633e-05 -2.60565639e-06 1.01643954e-20 1.01643954e-20
      1.01643954e-20 1.01643954e-20 1.01643954e-20 1.01643954e-20
      1.01643954e-20 1.01643954e-20 1.01643954e-20 1.01643954e-20
      1.01643954e-20 1.01643954e-20 1.68244806e-05 1.04226251e-06 0. 0.
      -1.29899536e-05 -1.56339377e-06 1.01643954e-20 1.01643954e-20
      1.01643954e-20 1.01643954e-20 1.01643954e-20 1.01643954e-20
      1.01643954e-20 1.01643954e-20 1.01643954e-20 1.01643954e-20
      1.01643954e-20 1.01643954e-20 1.01643954e-20 1.01643954e-20
      1.01643954e-20 1.01643954e-20 1.01643954e-20 1.01643954e-20
      1.01643954e-20 1.01643954e-20 1.01643954e-20 1.01643954e-20
      1.01643954e-20 1.01643954e-20 1.01643954e-20 1.01643954e-20
      -2.25143704e-05 -3.72543254e-05 -3.93388509e-05 -3.93388509e-05
      -1.96235633e-05 -2.60565639e-06 1.01643954e-20 1.01643954e-20
      1.01643954e-20 1.01643954e-20 1.01643954e-20 1.01643954e-20
      1.01643954e-20 1.01643954e-20 1.01643954e-20 1.01643954e-20
      1.01643954e-20 1.01643954e-20 1.68244806e-05 1.04226251e-06 0. 0.
      -1.29899536e-05 -1.56339377e-06 1.01643954e-20 1.01643954e-20
      1.01643954e-20 1.01643954e-20 1.01643954e-20 1.01643954e-20
      1.01643954e-20 1.01643954e-20 1.01643954e-20 1.01643954e-20
      1.01643954e-20 1.01643954e-20 1.01643954e-20 1.01643954e-20
      1.01643954e-20 1.01643954e-20 1.01643954e-20 1.01643954e-20
      1.01643954e-20 1.01643954e-20 1.01643954e-20 1.01643954e-20
      1.01643954e-20 1.01643954e-20 1.01643954e-20 1.01643954e-20
      -2.64228547e-05 -3.89805718e-05 -3.93388509e-05 -3.93388509e-05
      -1.67747330e-05 -8.04979948e-07 1.01643954e-20 1.01643954e-20
      1.01643954e-20 1.01643954e-20 1.01643954e-20 1.01643954e-20
      1.01643954e-20 1.01643954e-20 1.01643954e-20 1.01643954e-20
      1.01643954e-20 2.73057904e-05 1.20691575e-05 1.62853524e-07 0. 0.
      -1.29899536e-05 -1.56339377e-06 1.01643954e-20 1.01643954e-20
      1.01643954e-20 1.01643954e-20 1.01643954e-20 1.01643954e-20
      1.01643954e-20 1.01643954e-20 1.01643954e-20 1.01643954e-20
      1.01643954e-20 1.01643954e-20 1.01643954e-20 1.01643954e-20
      1.01643954e-20 1.01643954e-20 1.01643954e-20 1.01643954e-20
      1.01643954e-20 1.01643954e-20 1.01643954e-20 1.01643954e-20
      1.01643954e-20 1.01643954e-20 1.01643954e-20 -1.69162013e-05
      -3.56909295e-05 -3.93388509e-05 -3.93388509e-05 -3.70265625e-05
      -1.35073251e-05 1.01643954e-20 1.01643954e-20 1.01643954e-20
      1.01643954e-20 1.01643954e-20 1.01643954e-20 1.01643954e-20
      1.01643954e-20 1.01643954e-20 1.01643954e-20 1.01643954e-20
      1.01643954e-20 1.59433075e-05 2.60565639e-06 0. 0. -1.71016145e-05
      -1.64952107e-05 -1.30282820e-06 1.01643954e-20 1.01643954e-20
      1.01643954e-20 1.01643954e-20 1.01643954e-20 1.01643954e-20
      1.01643954e-20 1.01643954e-20 1.01643954e-20 1.01643954e-20
      1.01643954e-20 1.01643954e-20 1.01643954e-20 1.01643954e-20
      1.01643954e-20 1.01643954e-20 1.01643954e-20 1.01643954e-20
      1.01643954e-20 1.01643954e-20 1.01643954e-20 1.01643954e-20
      1.01643954e-20 1.01643954e-20 1.01643954e-20 -1.69162013e-05
      -3.56909295e-05 -3.93388509e-05 -3.93388509e-05 -2.52217324e-05
      -4.13647922e-06 1.01643954e-20 1.01643954e-20 1.01643954e-20
      1.01643954e-20 1.01643954e-20 1.01643954e-20 1.01643954e-20
      1.01643954e-20 1.01643954e-20 1.01643954e-20 1.01643954e-20
      1.01643954e-20 1.59433075e-05 2.60565639e-06 0. 0. -2.62259000e-05
      -1.44448222e-05 1.01643954e-20 1.01643954e-20 1.01643954e-20
      1.01643954e-20 1.01643954e-20 1.01643954e-20 1.01643954e-20
      1.01643954e-20 1.01643954e-20 1.01643954e-20 1.01643954e-20
      1.01643954e-20 1.01643954e-20 1.01643954e-20 1.01643954e-20
      1.01643954e-20 1.01643954e-20 1.01643954e-20 1.01643954e-20
      1.01643954e-20 1.01643954e-20 1.01643954e-20 1.01643954e-20
      1.01643954e-20 1.01643954e-20 1.01643954e-20 -1.69162013e-05
      -3.56909295e-05 -3.93388509e-05 -3.93388509e-05 -2.52217324e-05
      -4.13647922e-06 1.01643954e-20 1.01643954e-20 1.01643954e-20
      1.01643954e-20 1.01643954e-20 1.01643954e-20 1.01643954e-20
      1.01643954e-20 1.01643954e-20 1.01643954e-20 1.01643954e-20
      1.01643954e-20 1.59433075e-05 2.60565639e-06 0. 0. -1.91673407e-05
      -8.72495548e-06 1.01643954e-20 1.01643954e-20 1.01643954e-20
      1.01643954e-20 1.01643954e-20 1.01643954e-20 1.01643954e-20
      1.01643954e-20 1.01643954e-20 1.01643954e-20 1.01643954e-20
      1.01643954e-20 1.01643954e-20 1.01643954e-20 1.01643954e-20
      1.01643954e-20 1.01643954e-20 1.01643954e-20 1.01643954e-20
      1.01643954e-20 1.01643954e-20 1.01643954e-20 1.01643954e-20
      1.01643954e-20 1.01643954e-20 1.01643954e-20 -1.69162013e-05
      -3.56909295e-05 -3.93388509e-05 -3.93388509e-05 -2.52217324e-05
      -4.13647922e-06 1.01643954e-20 1.01643954e-20 1.01643954e-20
      1.01643954e-20 1.01643954e-20 1.01643954e-20 1.01643954e-20
      1.01643954e-20 1.01643954e-20 1.01643954e-20 1.01643954e-20
      1.01643954e-20 1.59433075e-05 2.60565639e-06 0. 0. -1.21087814e-05
      -3.12678753e-06 1.01643954e-20 1.01643954e-20 1.01643954e-20
      1.01643954e-20 1.01643954e-20 1.01643954e-20 1.01643954e-20
      1.01643954e-20 1.01643954e-20 1.01643954e-20 1.01643954e-20
      1.01643954e-20 1.01643954e-20 1.01643954e-20 1.01643954e-20
      1.01643954e-20 1.01643954e-20 1.01643954e-20 1.01643954e-20
      1.01643954e-20 1.01643954e-20 1.01643954e-20 1.01643954e-20
      1.01643954e-20 1.01643954e-20 1.01643954e-20 -1.69162013e-05
      -3.56909295e-05 -3.93388509e-05 -3.93388509e-05 -2.52217324e-05
      -4.13647922e-06 1.01643954e-20 1.01643954e-20 1.01643954e-20
      1.01643954e-20 1.01643954e-20 1.01643954e-20 1.01643954e-20
      1.01643954e-20 1.01643954e-20 1.01643954e-20 1.01643954e-20
      1.01643954e-20 1.59433075e-05 2.60565639e-06 0. 0. -1.21087814e-05
      -3.12678753e-06 1.01643954e-20 1.01643954e-20 1.01643954e-20
      1.01643954e-20 1.01643954e-20 1.01643954e-20 1.01643954e-20
      1.01643954e-20 1.01643954e-20 1.01643954e-20 1.01643954e-20
      1.01643954e-20 1.01643954e-20 1.01643954e-20 1.01643954e-20
      1.01643954e-20 1.01643954e-20 1.01643954e-20 1.01643954e-20
      1.01643954e-20 1.01643954e-20 1.01643954e-20 1.01643954e-20
      1.01643954e-20 1.01643954e-20 1.01643954e-20 -1.69162013e-05
      -3.56909295e-05 -3.93388509e-05 -3.93388509e-05 -2.52217324e-05
      -4.13647922e-06 1.01643954e-20 1.01643954e-20 1.01643954e-20
      1.01643954e-20 1.01643954e-20 1.01643954e-20 1.01643954e-20
      1.01643954e-20 1.01643954e-20 1.01643954e-20 1.01643954e-20
      1.01643954e-20 1.59433075e-05 2.60565639e-06 0. 0. -1.21087814e-05
      -3.12678753e-06 1.01643954e-20 1.01643954e-20 1.01643954e-20
      1.01643954e-20 1.01643954e-20 1.01643954e-20 1.01643954e-20
      1.01643954e-20 1.01643954e-20 1.01643954e-20 1.01643954e-20
      1.01643954e-20 1.01643954e-20 1.01643954e-20 1.01643954e-20
      1.01643954e-20 1.01643954e-20 1.01643954e-20 1.01643954e-20
      1.01643954e-20 1.01643954e-20 1.01643954e-20 1.01643954e-20
